292168 300
</s> -0.11675 0.20529 0.034436 0.15036 -0.03286 0.13565 -0.092248 0.15228 -0.16917 0.2052 -0.22649 -0.069126 -0.22155 0.17329 0.40603 -0.51888 -0.029561 0.35296 0.18654 -0.074298 -0.29611 -0.071926 -0.45142 -0.098161 0.18504 0.22318 -0.056858 -0.2199 0.23605 0.13453 0.134 0.25961 -0.20169 -0.17323 -0.18665 -0.19013 0.26101 -0.27923 0.18636 0.23245 -0.090312 0.022616 -0.20136 -0.1648 0.12433 -0.12729 -0.1527 0.075977 -0.27097 -0.32313 0.0056398 0.083666 0.1638 -0.31621 0.20978 -0.041386 -0.14457 0.20944 0.073696 -0.32248 -0.56427 0.1305 -0.029588 0.19016 -0.082879 0.011348 0.12759 -0.097161 0.029653 -0.081642 0.30408 0.033874 0.092332 -0.063115 -0.19054 0.043108 0.0073449 0.022989 0.20927 0.0058712 0.25484 -0.24814 0.22084 -0.002563 0.2178 0.11087 0.13531 0.14412 -0.22643 -0.19141 -0.46462 0.2661 -0.19098 0.33629 0.017742 -0.071944 -0.04434 0.25652 0.11969 -0.051459 -0.26506 0.080453 0.17227 0.22906 -0.18446 -0.1662 0.10299 0.11123 0.17906 0.2823 -0.033877 0.20115 -0.15929 0.094523 -0.024145 0.039747 -0.031811 -0.16422 0.089764 -0.026928 0.18159 -0.13406 -0.10103 -0.0097345 -0.12574 0.078092 -0.19415 -0.24226 0.0146 0.29124 -0.29052 0.05076 0.18704 0.04479 -0.068582 -0.11907 -0.33549 -0.19527 0.2134 -0.13843 0.081037 0.012363 0.27514 -0.18766 0.22494 0.098785 0.083224 0.24345 -0.17651 0.054746 0.0063911 0.20504 -0.087178 0.022574 -0.13384 0.084333 0.23379 0.46921 -0.3076 -0.039746 0.10225 -0.037536 0.32227 0.057143 -0.0072704 -0.17433 -0.052716 -0.33189 0.23191 -0.26203 0.049801 -0.20121 0.080275 0.025018 0.047174 -0.081986 -0.2701 0.16716 0.0098399 0.065118 0.13857 -0.22625 0.115 -0.20242 -0.17441 -0.12345 0.050532 0.38787 -0.19904 -0.032908 -0.049994 -0.097367 0.2822 -0.1119 0.00044211 -0.28477 -0.18709 0.64646 -0.066637 -0.52394 0.41848 0.017005 -0.16819 0.14541 -0.021125 -0.079352 0.026385 -0.2366 -0.32138 0.16798 -0.05087 -0.089669 -0.24298 -0.19843 -0.29456 -0.082741 0.26316 0.25047 0.19062 0.068505 0.11899 0.10606 0.055675 0.017487 0.22933 0.21853 0.14178 0.032334 -0.20376 -0.026738 0.17988 -0.29437 -0.18118 0.04143 0.01429 0.18379 -0.20091 0.08485 -0.10848 -0.19404 -0.16025 0.038281 -0.049229 -0.12944 -0.090752 0.063315 -0.024709 -0.0065811 0.1177 0.20536 0.4315 -0.035824 -0.35881 -0.064468 -0.34998 -0.26527 0.12203 0.15163 0.032778 0.17239 0.067591 0.30802 -0.10573 0.036777 -0.048776 0.33947 -0.22871 0.018731 -0.29053 0.027244 0.026122 -0.18521 0.1427 -0.19407 -0.23424 -0.0016134 0.20083 -0.0057019 0.40719 0.018919 0.23137 0.16148 -0.13276 -0.12775 0.13706 -0.14355 0.26256 0.29582 -0.21114 0.2439 0.068252 -0.21157 -0.043732 0.031758 0.33156 -0.080172 0.063082 -0.075161 -0.31389 -0.33141 
. 0.055374 0.12148 0.10331 0.10394 0.075347 0.11288 -0.050995 -0.04382 -0.029402 -0.010662 -0.23082 0.097032 -0.084185 -0.15364 -0.088088 -0.062593 -0.038677 0.081338 0.020079 -0.23737 -0.22088 -0.21261 -0.06868 -0.29105 -0.18444 -0.053915 0.10746 -0.083689 -0.0014771 0.19124 0.10432 0.022188 -0.058469 -0.12206 0.0403 -0.12496 -0.030598 0.12789 -0.14021 -0.0090435 -0.086788 -0.074794 -0.067368 0.0036752 -0.08368 -0.21245 0.1518 -0.17954 -0.00099932 0.0026742 0.054845 -0.0661 -0.055537 -0.4284 0.079499 0.1073 0.12977 0.1669 0.1979 0.01063 -0.24808 -0.24958 -0.03602 -0.066899 0.035366 0.026902 -0.052265 0.065389 -0.042796 0.088741 -0.014868 -0.089213 0.13677 0.16797 -0.094921 -8.6807e-05 -0.098177 -0.066688 -0.10699 -0.22079 0.072524 -0.075596 -0.16373 -0.12246 0.071269 0.058243 0.099041 -0.080753 -0.21287 -0.10459 -0.16924 0.16384 0.37019 0.038781 -0.11599 -0.23846 -0.11139 0.22392 0.1436 0.015012 0.18539 -0.25291 -0.078301 0.065544 0.2048 0.11743 0.038499 -0.11089 -0.35043 0.073053 0.016636 0.091438 -0.14084 -0.098173 -0.044369 0.21422 -0.11141 0.18112 0.1544 0.16591 0.18693 0.04619 -0.026684 0.0051363 0.098793 0.013834 -0.035395 0.029584 0.18575 0.13535 -0.028601 -0.14156 0.21085 0.016451 0.099595 -0.050673 -0.20773 0.011602 0.13961 -0.13909 -0.051278 0.34764 0.24001 0.062894 0.35391 -0.014273 -0.20144 0.012397 -0.20586 0.10802 -0.071456 -0.219 -0.19748 -0.18104 -0.15217 0.27308 0.04057 0.29515 -0.15285 0.071097 -0.23196 0.14588 0.067985 0.041718 -0.0091567 -0.13913 0.10566 -0.088234 0.02254 0.10372 0.25959 0.14686 0.014815 -0.036588 0.067327 0.056872 -0.20195 -0.1609 0.22452 0.23324 -0.05069 0.082247 0.34658 0.089215 -0.00085622 -0.023425 -0.00061115 0.20191 0.15407 0.12171 -0.206 0.2847 -0.21513 -0.15914 -0.076768 -0.11075 -0.0045465 0.11994 -0.082444 -0.19764 -0.10016 0.087209 0.15192 -0.11155 -0.17361 -0.01011 -0.052685 0.017117 0.056527 -0.036561 -0.0085526 -0.19747 -0.20674 -0.01221 0.096296 0.070577 0.03652 -0.0055302 -0.095199 -0.028051 0.00071366 0.032188 -0.020258 -0.0085302 0.11383 0.24851 0.01324 0.29265 -0.24967 0.11866 -0.035121 -0.10103 0.067522 -0.29954 0.19744 0.1569 -0.052747 -0.10335 0.0082807 -0.0034347 -0.23187 -0.035415 -0.055185 -0.013844 0.10083 0.0087026 -0.090992 0.1099 -0.088197 0.17373 0.040231 0.1494 -0.060392 0.21444 -0.27612 0.01122 0.0018982 0.026888 -0.046406 0.028835 -0.049294 0.15532 0.22161 -0.13249 0.30937 0.07637 -0.31686 0.45854 0.043495 0.046746 -0.042718 0.24348 0.12232 -0.39288 -0.051971 -0.023375 0.15297 -0.17134 -0.15402 0.21772 0.11343 0.020039 0.15352 0.17165 0.10228 0.13234 0.12868 -0.0090527 -0.15743 0.025522 0.076441 -0.26036 -0.14151 -0.02354 0.15352 -0.090688 0.15488 -0.00158 -0.080939 -0.086929 
, 0.14878 0.26518 0.11068 0.065074 0.15403 0.096758 -0.13397 -0.14124 -0.15902 -0.23462 -0.018734 -0.19034 0.089977 -0.097799 0.24109 0.028155 -0.12993 0.13078 0.12376 -0.077894 0.016219 -0.080639 0.022013 -0.21979 -0.0090733 0.011328 0.07747 -0.1613 0.36607 -0.053581 0.051053 -0.10787 0.062723 -0.067333 0.0099034 0.0078633 0.07872 0.18229 0.015541 0.10384 -0.065239 -0.056656 -0.23271 0.067356 0.23677 -0.1996 -0.083995 -0.1039 -0.0046898 -0.043917 -0.085357 -0.062558 -0.064006 -0.21016 0.20758 0.049122 0.061229 0.081118 0.081307 -0.046121 -0.0404 -0.29543 -0.10984 0.083959 0.030588 0.040974 -0.084981 0.077838 -0.069689 -0.19576 -0.076426 0.12336 0.20537 -0.062336 -0.066552 0.060747 -0.015172 -0.0046396 0.0047749 -0.18245 -0.097867 -0.015197 -0.12561 -0.042887 0.041936 0.10411 -4.5672e-05 -0.11103 -0.1478 0.055339 0.11068 0.43517 0.20338 0.12195 0.064952 -0.025242 -0.19568 0.11212 0.19359 0.17207 0.20765 -0.28074 0.0077649 0.12618 0.24912 0.10717 -0.080718 -0.056756 -0.52867 0.13984 0.029747 0.27144 -0.23095 -0.01773 -0.0092975 0.17544 -0.098608 0.16052 0.16504 0.079186 0.22596 -0.020392 -0.16336 0.078539 0.064374 0.053729 -0.023988 -0.04693 0.042241 0.087576 -0.10389 0.16283 -0.13271 0.026338 -0.037727 -0.19962 -0.15182 -0.087949 -0.010556 -0.098281 0.033166 0.29964 0.28312 -0.0015568 0.31904 -0.071989 -0.15623 0.026494 -0.29683 0.094679 -0.13607 -0.3583 -0.089483 0.1189 -0.10246 0.20107 0.27187 0.018309 0.021161 -0.038453 -0.17998 0.12045 -0.091938 0.0090329 -0.062831 -0.039389 0.15757 -0.077819 -0.059109 -0.088199 0.22054 0.14095 -0.035124 -0.034112 0.079327 -0.17236 -0.015704 0.17429 0.092586 -0.0012294 0.073625 0.046511 0.15394 0.040492 0.16589 0.12646 0.021449 0.20697 0.028383 0.054363 -0.20352 0.11502 -0.26075 -0.059381 -0.021416 -0.19783 0.078112 0.13282 -0.075024 -0.17355 0.054127 0.19238 0.22041 -0.2094 0.045989 0.015053 0.043223 0.015008 0.037318 -0.014831 -0.13513 -0.18335 -0.069881 0.21315 0.029592 -0.09467 -0.10053 -0.015777 -0.083206 0.017184 -0.091531 -0.037486 -0.015409 0.2298 0.072809 0.10142 -0.039315 0.2611 0.042397 -0.013826 0.11898 -0.074789 -0.13681 -0.18081 0.016003 0.068187 -0.066675 -0.33529 -0.11584 -0.26139 0.00042716 -0.029133 0.14887 -0.0067674 -0.020805 0.065298 0.17014 -0.12276 -0.00051935 -0.090716 0.079586 0.22062 -0.038744 0.1182 -0.2386 0.044038 0.15183 -0.053043 -0.010535 4.5896e-06 0.14604 -0.034333 0.053684 0.12332 0.13496 0.043188 -0.26351 0.20089 0.04958 0.064693 0.0095404 0.030094 0.062342 -0.053575 0.19007 0.030654 0.18465 -0.023727 0.07797 -0.06179 -0.14274 0.074723 0.11829 0.031599 0.16897 0.13229 0.051752 -0.010731 0.092471 -0.02468 -0.20207 -0.0062035 -0.029167 -0.12433 0.22201 -0.028052 -0.081869 -0.032343 -0.050869 -0.10433 
' -0.12927 -0.41958 -0.02127 -0.26413 0.083709 0.058522 0.12894 -0.10766 -0.097568 -0.18608 -0.099707 0.13122 0.095436 -0.02385 -0.071616 0.24836 0.11716 -0.088371 0.037332 -0.26785 -0.25643 -0.2342 -0.08132 -0.0071126 0.09486 -0.12125 0.092331 0.038327 0.13215 0.085096 -0.16387 0.076856 0.14538 -0.26959 0.19062 0.084638 -0.054602 0.42545 -0.072248 0.097781 0.079814 0.025509 0.090823 -0.011611 -0.18336 -0.11386 0.14903 0.076369 0.25274 -0.068462 0.27638 0.053635 0.12843 -0.48465 -0.0076079 0.13105 0.086434 0.18225 0.1804 0.047603 -0.38922 0.04956 -0.35897 0.29116 0.19981 0.19588 -0.2511 0.36778 -0.0012314 0.15955 -0.15114 -0.29451 0.012342 -0.033283 -0.35006 0.23675 -0.25356 0.081333 -0.14319 -0.051678 0.16128 -0.094168 -0.13028 -0.15084 0.12503 0.049634 0.038686 0.048787 -0.16581 -0.24898 -0.072139 -0.0095179 0.4706 -0.077098 -0.0085236 -0.077491 -0.33203 0.073506 0.29402 0.073662 0.14675 -0.23512 -0.11633 0.11577 0.012639 0.28748 0.025554 0.070223 -0.0033247 0.076764 -0.05916 0.067706 -0.19405 -0.031185 -0.089781 0.43951 0.0031535 0.00018215 0.0097347 -0.013739 0.17672 0.24753 -0.083135 0.11075 0.063573 -0.037432 -0.12367 -0.26677 0.10068 0.18071 0.19969 -0.19992 0.037114 0.22477 -0.17917 0.21231 0.037282 -0.035573 -0.042635 -0.22741 -0.021679 0.4994 0.12238 -0.40216 0.079407 -0.20896 -0.12975 0.45882 0.035763 -0.06362 -0.020713 -0.13896 -0.067135 0.15267 -0.1668 0.25666 0.15463 0.15158 0.22431 0.01298 -0.18404 0.14606 0.014224 0.19383 -0.17424 -0.010041 -0.10103 0.21754 -0.10725 0.18978 -0.026169 0.0015095 -0.35508 0.00075551 0.15773 0.0086097 -0.12457 0.20527 -0.11199 -0.023465 -0.11244 0.091828 -0.11443 -0.26697 0.1217 -0.14414 -0.028439 0.23048 -0.084084 -0.37466 -0.098932 0.0045265 -0.27591 -0.021762 -0.13038 -0.4693 0.15518 -0.19781 -0.029062 0.0042678 0.32208 0.045021 0.031506 -0.099512 0.086357 -0.26657 -0.1617 -0.34835 -0.15854 -0.024511 -0.43773 -0.022824 0.13754 0.051471 0.048263 -0.21779 0.072827 0.34344 0.071753 -0.16067 -0.044929 0.25836 0.031627 -0.11203 -0.16529 0.13408 -0.0011443 0.23543 -0.1051 0.10065 0.20044 0.041607 0.063473 -0.39019 0.0885 -0.061772 -0.12053 0.047466 -0.24347 0.15803 -0.016891 0.20738 0.18051 0.022518 0.1006 -0.040792 0.28723 0.22534 -0.10723 0.27966 0.15154 0.23616 0.072714 -0.10481 -0.11222 0.17073 0.016611 0.28658 -0.057532 0.025409 0.066171 0.34553 -0.0093812 -0.27857 0.12831 0.31667 -0.029254 -0.04683 0.16086 0.24345 -0.16003 0.01089 0.15996 0.03308 0.16935 0.093424 0.1653 0.13479 0.21539 0.084806 0.17123 0.050453 0.029943 0.17069 0.09427 -0.20897 0.030161 -0.21922 -0.094195 -0.021621 0.058568 0.02308 -0.033498 0.10431 -0.10466 -0.22627 0.059677 -0.25269 -0.31172 0.2078 
thể -0.39436 -0.45648 -0.16425 -0.22 -0.15288 -0.10868 0.18921 -0.10054 0.060291 -0.60964 0.27233 0.03957 0.2243 -0.068073 0.39791 0.14155 -0.16265 0.061079 -0.44697 -0.3542 -0.077468 -0.22217 0.19584 0.069569 0.015594 -0.11268 0.15474 -0.010206 -0.1046 -0.21969 -0.20067 0.1224 -0.087943 0.042879 -0.11774 0.089845 0.2147 0.3583 0.68664 -0.57886 0.031599 0.29922 0.37323 0.37524 -0.1035 -0.079123 0.25721 -0.30923 -0.26312 0.35431 -0.45693 -0.024976 0.12994 -0.25179 0.085084 0.28178 -0.25384 0.24642 -0.34544 0.069596 -0.041553 0.21432 -0.30067 0.058802 0.099637 0.2362 0.16751 -0.25486 -0.27679 -0.062995 -0.045183 -0.17329 -0.25453 -0.28471 -0.22852 -0.13079 -0.13287 0.20254 -0.020063 0.2615 0.084765 -0.096126 0.19418 -0.40753 -0.15164 0.18181 0.40528 -0.47775 -0.33018 -0.39204 -0.14229 0.39339 0.23705 -0.072095 0.078726 -0.046378 -0.070304 0.2518 0.31501 -0.28736 0.4532 -0.43946 -0.14542 0.113 0.11343 -0.042284 -0.12631 -0.12607 -0.04869 0.023082 0.028877 -0.028448 0.14969 0.004244 0.043309 0.4648 0.11883 -0.16017 0.22059 0.21791 0.3291 -0.20423 0.1123 -0.39811 -0.068911 -0.069677 -0.25926 0.019546 0.050512 -0.042593 0.11938 -0.010144 -0.14936 0.22576 -0.076663 0.11576 -0.11416 -0.55536 -0.2164 -0.16235 -0.039452 0.36212 -0.028983 -0.063401 0.29702 -0.074275 -0.4087 0.74325 -0.19754 -0.30639 -0.34046 -0.21804 -0.24269 -0.22846 -0.012123 0.18765 -0.39953 -0.49629 -0.078761 -0.28252 -0.12852 -0.28224 -0.19258 0.15042 -0.022229 0.019531 0.14317 0.052437 0.016881 0.52806 -0.11194 0.22018 0.12149 -0.28607 0.31003 -0.10191 -0.11197 -0.013155 0.27854 -0.0047436 -0.30183 0.022088 -0.47514 -0.4561 0.034986 0.11787 -0.2565 0.024697 0.1661 -0.21837 -0.74356 -0.0059252 0.19575 0.40755 -0.16862 -0.15399 -0.088675 -0.17987 -0.49363 -0.63208 0.0082974 0.3035 0.083288 -0.23151 0.43492 0.56644 -0.66273 -0.71204 -0.37931 -0.085784 -0.039395 -0.50637 0.062389 -0.13358 -0.015645 -0.12358 0.2564 0.023797 -0.62751 -0.14201 0.074294 0.054825 0.37144 -0.011702 -0.071542 0.25979 -0.041306 0.16499 0.05094 0.082323 -0.010133 0.037389 -0.0021929 -0.47372 -0.20716 0.083412 -0.25485 -0.29687 -0.13909 0.029677 -0.12239 -0.052723 0.16108 -0.25325 0.66861 0.25201 -0.23974 0.11862 0.066193 0.20619 0.085306 -0.18477 0.15258 -0.46176 0.3137 0.16638 0.082832 -0.21639 -0.14839 -0.19008 -0.22017 -0.092451 -0.12953 0.020151 -0.036318 0.41645 -0.35399 -0.32035 0.058623 0.10624 -0.41717 -0.074338 0.19192 -0.37371 0.33127 0.32217 0.095981 -0.074771 0.21765 -0.1255 -0.13624 -0.21696 -0.086783 0.1284 0.25551 -0.00589 0.35834 -0.060834 -0.31192 -0.22212 0.16864 0.049443 0.17525 0.23301 -0.1495 -0.052153 0.23169 -0.37207 -0.17791 -0.23513 
là -0.044487 -0.21807 -0.00554 -0.14072 0.096427 0.066329 0.059206 -0.13446 0.02226 -0.21498 0.037666 0.19714 0.084147 -0.062172 -0.091692 0.29739 0.17537 -0.098748 -0.067093 -0.27539 -0.24501 0.074929 0.079809 -0.15888 -0.0072572 0.0063909 0.030912 -0.061051 0.16704 0.11877 -0.16938 0.11086 0.16963 -0.10585 0.13676 0.044919 -0.080668 0.2371 0.04854 0.11037 0.062428 0.13157 0.087248 0.052453 -0.14317 -0.12824 0.12973 0.13936 0.19517 -0.0044738 0.22889 0.019157 -0.074074 -0.41438 0.19613 0.10761 -0.0097498 0.14944 0.16978 -0.059687 -0.27239 -0.14246 -0.21298 0.068204 0.011651 0.066297 -0.13699 0.090155 -0.028381 0.095006 -0.1283 -0.22491 -0.078849 0.086878 -0.22016 0.11409 -0.086683 0.046246 -0.23653 -0.022743 0.1537 -0.070214 -0.11055 -0.023968 -0.0019588 0.015392 0.071778 -0.12892 -0.020321 -0.028536 0.023808 0.25199 0.34222 -0.24921 -0.050835 0.042167 -0.26384 0.10672 0.20737 0.079443 0.14395 -0.12174 0.0036632 0.17226 0.072996 0.29966 0.063175 -0.10963 -0.23315 0.020792 0.050944 -0.054423 -0.082886 -0.1105 0.0037257 0.35194 -0.04308 0.12749 0.042974 0.12227 0.17816 0.083727 0.039645 0.076768 0.19833 0.12929 -0.143 -0.11359 0.14228 -0.032251 0.13104 -0.19057 -0.10664 0.093006 0.053614 0.036115 0.16428 -0.10394 -0.067753 -0.32823 -0.068577 0.33226 0.0061622 -0.19218 0.021265 -0.11468 -0.1265 0.31536 -0.032904 0.01162 0.081144 -0.18941 -0.2515 0.086002 -0.058494 0.25026 0.085614 -0.12952 0.22344 0.036543 -0.051008 0.12706 0.2542 0.1901 0.11322 -0.0041168 -0.0061757 0.006117 0.088812 0.28759 0.060093 -0.0071567 -0.1573 0.12064 0.16135 -0.10413 0.065005 -0.044497 0.045077 0.033434 -0.025189 0.017725 0.20166 -0.052786 -0.00093074 0.083711 0.065831 0.16807 0.13709 -0.28612 -0.1649 0.1538 -0.092844 0.10064 -0.11057 -0.30356 -0.055656 -0.14257 -0.02683 -0.14991 -0.076479 -0.14757 0.058526 -0.22615 0.12427 -0.04093 -0.0094146 -0.24724 -0.10602 0.039486 -0.24628 -0.047242 -0.1092 0.025769 0.067687 -0.28316 0.045056 0.22469 0.10697 -0.18291 0.050452 0.079708 0.0054207 -0.055623 -0.10034 0.31494 -0.13256 0.2357 -0.015518 0.32224 0.037948 0.050794 0.034208 -0.24502 0.022151 -0.003223 -0.034678 0.033019 -0.23298 0.20802 -0.09088 0.16856 0.10746 -0.079004 0.40325 0.032533 -0.054541 0.2342 0.023353 0.24167 0.2358 0.25082 0.25447 -0.11567 -0.30387 0.14747 0.098745 0.13693 0.061489 -0.069366 0.12845 0.16705 0.08947 -0.22476 0.099452 0.052014 -0.1688 0.15617 0.10887 0.18988 -0.24889 0.025876 0.24674 -0.054778 0.021495 -0.059721 -0.045711 -0.20185 0.083297 0.023539 0.17048 -0.0019382 0.12445 -0.015508 0.14962 -0.052068 0.014095 -0.034886 -0.07142 -0.20569 0.058058 0.15731 -0.17896 0.35425 0.10072 -0.20432 0.12533 -0.080714 -0.15543 0.14682 
loại -0.44752 -0.61497 -0.25356 -0.40969 -0.24608 -0.17192 0.35703 -0.14123 -0.0434 -0.5664 0.1085 0.16831 0.18856 -0.080282 0.46038 0.24681 -0.28964 0.16527 -0.29803 -0.49932 -0.14266 -0.36343 0.22419 0.15307 0.070206 -0.09493 0.24178 0.08109 -0.15593 -0.1378 -0.19841 0.13038 -0.24887 0.056851 -0.25466 0.068055 0.13999 0.27992 0.87893 -0.69646 -0.015887 0.30751 0.56354 0.53729 -0.087224 -0.075324 0.34892 -0.47161 -0.25554 0.23687 -0.61391 -0.22977 0.059692 -0.40922 -0.0067713 0.28403 -0.47282 0.22933 -0.2813 -0.025883 0.050321 0.30376 -0.24561 0.18493 0.10295 0.34525 0.16562 0.11542 -0.27284 -0.237 -0.14963 -0.024048 -0.16596 -0.22855 -0.32317 -0.11309 0.027633 0.23215 0.13406 0.2441 0.24875 -0.049212 0.19442 -0.40538 -0.2612 0.14758 0.43433 -0.59389 -0.41938 -0.32498 0.020156 0.34893 0.24638 -0.033313 -0.013182 -0.072303 -0.23304 0.27479 0.41978 -0.3812 0.57952 -0.51134 -0.022328 0.056891 0.035731 -0.071673 -0.35969 -0.10231 -0.092674 0.063245 0.076406 -0.080312 0.15572 0.0022863 0.069592 0.60546 0.2222 -0.23244 0.33577 0.09733 0.29252 -0.067912 0.13115 -0.4302 -0.011148 -0.23277 -0.36779 0.076092 0.20508 0.019682 0.21796 0.039877 -0.11362 0.36902 -0.044911 0.098051 -0.11381 -0.58276 -0.30082 -0.14283 -0.03799 0.4451 0.15102 -0.12892 0.33189 -0.21683 -0.21949 0.88584 -0.22759 -0.3549 -0.39944 -0.25284 -0.20312 -0.25578 0.13222 0.28648 -0.56012 -0.27149 -0.027923 -0.48771 -0.069702 -0.30247 -0.18007 0.42766 0.057359 -0.013918 0.16801 0.16382 -0.11373 0.5531 -0.14137 0.12423 0.099178 -0.14854 0.30595 -0.1433 -0.29136 -0.12033 0.29307 0.097691 -0.2731 0.10469 -0.58765 -0.40136 -0.021066 -0.056487 -0.22098 0.1062 0.17557 -0.45031 -0.63731 -0.1434 0.23712 0.39831 -0.32914 -0.1778 -0.10356 -0.3229 -0.50776 -0.8465 -0.029475 0.12949 0.033736 -0.10185 0.49148 0.52738 -0.69779 -0.72162 -0.33151 -0.027425 -0.0084944 -0.52146 0.071067 -0.19872 0.15077 -0.1177 0.29427 0.025026 -0.68342 -0.33316 -0.088226 0.17119 0.31361 -0.030826 -0.18089 0.27593 0.0010353 0.18989 0.15343 0.2096 -0.082371 0.0015802 -0.086846 -0.62124 -0.1738 0.18254 -0.34431 -0.38717 -0.26419 -0.11326 -0.1715 -0.057276 0.29366 -0.17793 0.84955 0.31181 -0.16773 0.16405 -0.070805 0.30359 0.059123 -0.17437 0.19731 -0.47654 0.42813 0.41084 0.14456 -0.14984 -0.4393 -0.16618 0.078428 -0.21867 -0.15065 -0.12448 -0.23229 0.47541 -0.35882 -0.33947 0.0099521 0.10882 -0.48533 -0.11599 0.17003 -0.41048 0.3262 0.46478 0.23445 -0.00067383 0.2153 -0.066077 0.086472 -0.20055 0.0025955 0.10025 0.13303 0.057525 0.41064 0.0050573 -0.38973 -0.24353 0.22764 -0.01841 0.20504 0.13221 -0.0015835 0.014141 0.078447 -0.3869 -0.19546 -0.32053 
được 0.10362 0.055937 0.12638 -0.18153 0.21127 0.062893 -0.11365 -0.20615 0.12296 -0.29215 -0.022425 -0.26314 -0.0059761 -0.081646 0.079629 0.17171 0.068035 -0.1169 -0.2469 -0.25808 -0.36869 0.075681 0.00037983 -0.30324 0.090731 0.11021 0.12674 0.045877 0.15044 0.046607 -0.012979 -0.12651 -0.074379 0.029066 -0.016222 -0.010621 -0.031878 0.12718 -0.011035 -0.019103 -0.035697 0.035357 0.086515 0.1538 -0.11758 -0.23331 0.15702 -0.044058 0.08201 0.061643 -0.063229 -0.10627 0.05843 -0.1466 0.10379 0.26671 0.032983 -0.08357 0.17543 -0.22309 -0.20846 0.14741 -0.19231 0.11144 -0.026964 0.058842 0.10848 0.15004 -0.12376 -0.056606 -0.30048 -0.15466 -0.11037 0.21568 -0.10505 0.073107 -0.16718 -0.032979 -0.18026 -0.11816 0.040699 0.10095 -0.13961 -0.16447 -0.20934 -0.056782 -0.011127 -0.30124 -0.068908 0.010161 -0.18146 0.24331 0.24523 -0.0086088 -0.17219 -0.18306 -0.19384 0.030207 0.17314 0.23123 0.23882 -0.033425 -0.19139 0.24553 -0.1341 0.4836 0.1024 -0.091003 0.0032892 0.099817 0.057111 0.012298 -0.12252 -0.08555 -0.052214 0.26614 -0.051652 0.11689 -0.071339 0.15146 0.057195 -0.057024 0.21299 0.082216 -0.050219 0.063654 0.10152 -0.17514 0.11221 -0.013108 0.13442 -0.28472 0.04669 -0.037693 0.048363 -0.074784 -0.10347 0.20287 -0.058275 0.023581 0.12518 0.38296 0.046779 0.21136 0.099342 0.10684 -0.14265 0.028432 0.045399 -0.25064 -0.34151 0.12186 -0.21323 -0.11371 -0.0010012 0.32897 -0.083562 0.14822 -0.047501 0.14359 -0.16741 0.1212 -0.046985 -0.051818 0.093625 -0.10314 0.2969 -0.078514 0.1387 0.18852 -0.10792 0.11684 -0.095519 -0.13423 -0.11604 -0.018781 0.029567 -0.1437 0.041688 0.096223 -0.047483 -0.061939 0.30302 0.14253 -0.47165 0.21475 0.014192 0.29931 0.04357 -0.1771 -0.24138 0.11172 0.07152 0.082965 0.025305 -0.023017 0.10825 0.059015 -0.3241 -0.21091 0.16855 0.094092 0.1185 -0.23802 -0.16791 0.02013 -0.073568 -0.06169 -0.20553 0.067855 0.073617 0.12522 -0.034106 0.14209 0.26995 -0.14311 0.074536 0.055832 0.017573 -0.024514 0.21318 -0.0040564 -0.16503 -0.2741 0.027754 0.34596 0.11201 0.15417 -0.10867 0.19605 -0.0076488 -0.0077553 -0.11675 -0.26022 0.019574 -0.028914 -0.0084681 -0.0097682 -0.27878 0.26231 -0.093269 0.18557 0.042797 -0.11567 0.35011 -0.12245 -0.40747 0.18118 -0.12151 0.36576 0.17942 0.36756 0.1881 0.13271 -0.27925 -0.15696 -0.028752 -0.44515 0.2048 -0.26827 0.11826 -0.0062685 0.22141 -0.030669 0.16485 0.27092 -0.099063 0.34631 -0.079011 0.19195 -0.32133 0.14367 0.015089 -0.46743 0.081902 -0.052076 0.065387 -0.15779 0.11347 -0.045739 0.21981 -0.19006 0.21142 0.091035 0.21794 -0.063633 -0.030398 0.064621 -0.38135 0.115 0.012518 0.0011367 -0.14934 0.17725 -0.34686 -0.14553 0.23275 -0.10598 0.12346 -0.011578 
một -0.083151 -0.26302 -0.049734 -0.11432 2.2382e-05 -0.082431 0.041767 -0.14891 0.070608 -0.30275 0.21408 0.15506 0.12571 -0.3298 -0.081728 0.29998 0.15638 -0.12936 -0.13283 -0.2452 -0.30709 0.048285 0.035192 -0.10927 0.11248 -0.1009 -0.076596 -0.0092704 0.089652 0.10136 -0.041034 0.10148 0.053971 -0.12894 0.23747 -0.039631 -0.097112 0.267 -0.077381 0.099223 0.073129 0.11096 0.13496 0.21402 0.014922 -0.17492 0.050581 0.1183 0.069556 -0.077278 0.16875 -0.099637 0.052368 -0.45198 0.096209 0.18996 0.19787 0.019972 0.025646 0.08739 -0.28068 -0.10446 -0.19076 -0.00018136 0.094261 0.14345 -0.051105 0.11988 -0.034319 0.16591 -0.15024 -0.22377 -0.08901 0.1694 -0.22197 0.13023 -0.19664 0.07437 -0.24299 -0.048811 0.2326 -0.1504 -0.010646 -0.11966 -0.063046 0.024919 -0.0046131 -0.11016 0.017667 -0.053033 -0.024504 0.21888 0.35098 -0.15918 -0.07703 0.029512 -0.37011 0.081234 0.0016376 -0.057655 0.13127 -0.1066 -0.096809 0.12922 -0.051144 0.34558 0.15646 -0.11995 -0.11912 -0.062127 -0.071239 0.0041795 -0.018737 -0.039193 0.092871 0.39963 0.0091908 0.0076805 0.040784 0.015083 0.31197 0.24278 0.11644 -0.042844 0.10292 0.13851 -0.13775 -0.25 0.063899 -0.16869 0.19161 -0.23141 -0.014971 0.12166 0.03555 -0.035402 0.10628 -0.0876 -0.12224 -0.19283 -0.062626 0.20957 0.11635 -0.22527 -0.096064 -0.10356 -0.11133 0.24637 -0.025969 -0.19767 -0.039596 -0.17258 -0.29003 0.11095 -0.11268 0.19085 0.18152 -0.062778 0.19718 0.029972 0.12686 0.052614 0.14602 0.1016 -0.10202 0.024272 0.080221 -0.0188 0.22619 0.28058 -0.051669 0.088806 -0.051387 0.13515 0.23893 -0.054773 -0.02 -0.037287 0.10683 0.027527 -0.033607 0.019232 0.071341 -0.060036 0.013474 0.08293 -0.082198 0.18555 0.23966 -0.28322 -0.14886 0.098206 -0.24371 0.092196 -0.092095 -0.32726 0.08908 -0.18051 0.0046812 -0.15124 -0.035008 -0.073814 0.056072 -0.17704 0.070455 0.064998 -0.0048839 -0.24634 -0.066315 0.036997 -0.093671 -0.14421 -0.14353 -0.006783 0.056965 -0.30103 0.087738 0.26283 -0.012145 -0.09533 0.23957 0.10316 -0.071545 -0.055199 -0.064672 0.38182 -0.099942 0.28373 0.15153 0.22073 0.11372 0.085765 0.01518 -0.20421 0.031816 0.030333 0.086057 -0.0837 -0.24545 0.050996 -0.0075411 0.26304 0.17012 -0.10746 0.29739 -0.064936 0.025426 0.32188 0.043969 0.24125 0.30654 0.34307 0.14067 -0.26236 -0.27045 0.088259 0.14325 0.01106 0.061823 -0.084336 -0.02784 0.19939 0.23426 -0.11291 0.077457 0.22808 -0.20432 -0.032824 0.17974 0.15485 -0.25853 0.037687 0.20609 -0.12735 0.088236 -0.023095 -0.090718 -0.06993 0.13109 -0.026312 0.039186 -0.054869 0.038528 0.002623 0.19554 -0.009382 -0.030536 -0.10457 -0.27186 -0.23398 -0.024888 0.13894 -0.14126 0.13488 -0.10523 -0.2291 0.26454 -0.054063 -0.14045 0.26761 
) 0.0445 0.17477 0.20058 -0.16998 0.30826 0.021252 -0.086537 0.068583 -0.15045 0.11507 -0.037781 -0.27495 -0.042157 0.13696 0.23903 0.031222 -0.075802 0.22478 -0.055813 -0.071776 -0.11584 -0.10927 0.1193 -0.10957 0.0121 0.048386 0.065707 0.031545 0.16258 0.14242 -0.077774 0.083889 -0.135 -0.37502 0.11827 -0.13579 -0.068713 0.099485 0.041741 -0.0050825 -0.1837 0.057642 -0.20037 0.054832 -0.10367 0.060335 -0.15486 -0.31491 -0.15121 -0.15415 -0.25936 0.0054278 0.06413 -0.26696 0.21847 -0.022463 -0.29036 0.011525 0.042842 -0.096189 -0.048771 -0.10105 -0.082401 0.062193 0.037949 -0.14488 -0.0065499 0.1767 -0.17658 -0.033494 -0.26394 0.021804 0.052678 -0.018318 -0.15766 -0.11026 -0.16335 0.045444 -0.11667 -0.12217 -0.094987 -0.14418 -0.19865 -0.19604 -0.0053135 -0.076034 -0.17283 0.030334 -0.029358 -0.036928 -0.062242 0.10484 0.29111 -0.013398 0.12471 0.0078637 -0.12888 0.23886 0.27809 0.29977 0.12202 -0.15433 -0.045917 0.16375 0.071055 0.18634 0.17124 0.074794 -0.34721 -0.037474 -0.16292 0.15893 -0.27529 -0.00088685 -0.30616 0.14582 0.069546 -0.082117 -0.081326 -0.20723 0.33581 -0.14382 -0.0028444 0.14885 -0.10964 0.10346 -0.097665 0.021228 -0.0063022 0.2709 0.067088 -0.0093497 0.16624 -0.0013606 0.03786 -0.056081 -0.54833 0.093656 0.059006 -0.16422 0.07057 0.37727 0.20298 0.11342 0.23421 0.072275 0.027656 -0.064314 -0.07518 0.093158 0.137 -0.11568 -0.10321 -0.026966 -0.14531 0.31996 0.01214 0.23947 0.15557 0.28208 -0.18007 0.18046 0.071786 0.14167 -0.08964 -0.043228 -0.022065 -0.035782 0.097023 -0.08864 0.17715 0.11715 -0.22715 -0.030603 0.20249 -0.31303 0.25454 0.19661 0.080006 0.14126 0.19665 0.22335 0.069763 -0.037483 0.16457 -0.033015 0.034392 0.21886 -0.16636 0.042565 0.020621 -0.032887 -0.15251 -0.088806 -0.20639 -0.27951 0.21635 0.14417 -0.18843 -0.16872 0.083426 0.16524 -0.030234 -0.030339 -0.075239 -0.11992 0.13972 -0.10504 -0.18952 0.22436 -0.04643 -0.18164 -0.076506 0.18503 -0.15416 -0.061179 -0.17398 -0.012185 -0.0040285 -0.037005 -0.012767 -0.036816 -0.043008 -0.096358 0.15138 0.17495 0.13831 0.29905 -0.16956 0.027616 0.26914 -0.082943 -0.053958 -0.045871 0.12685 -0.081327 -0.20965 -0.072041 -0.045873 -0.17668 -0.0033598 0.17265 -0.063552 0.1208 -0.025312 -0.092441 0.10623 0.084511 -0.03165 -0.060195 0.14989 0.14001 0.046946 0.30042 -0.11703 0.27658 0.035557 0.085124 -0.1511 0.039037 -0.014416 0.013957 0.018496 -0.25279 -0.0084516 0.20803 -0.10721 0.44245 0.080046 0.13322 0.06662 0.15002 -0.047655 -0.0079711 -0.056484 -0.038962 0.26188 -0.11051 0.16337 0.043101 0.090326 0.062566 0.15187 0.22723 0.3592 0.055078 -0.016816 -0.27859 0.29274 -0.015389 -0.095776 0.046831 -0.12573 0.030683 0.11713 0.02597 0.10107 -0.17517 -0.24423 -0.17738 
( 0.0056196 0.13406 0.14849 -0.19208 0.24791 0.06053 -0.10659 0.013374 -0.17234 0.12222 -0.03383 -0.26424 -0.07856 0.12344 0.28674 0.083687 -0.098029 0.19541 0.0010688 -0.049045 -0.10376 -0.038687 0.097903 -0.12926 0.11217 0.051249 0.049766 0.046976 0.20366 0.14224 -0.13087 0.10665 -0.090105 -0.33737 0.086146 -0.16539 -0.08185 0.11238 0.08551 -0.028676 -0.16262 0.062389 -0.26482 0.013323 -0.091317 -0.03157 -0.10619 -0.31362 -0.043845 -0.21173 -0.21724 0.016095 0.019791 -0.3015 0.2102 -0.03387 -0.30136 0.0095918 0.032581 -0.069915 -0.1329 -0.075619 -0.10567 0.047679 0.049727 -0.11622 0.0079436 0.21591 -0.19449 -0.040684 -0.23485 0.040328 -0.043527 -0.059123 -0.12439 -0.030884 -0.14436 0.057864 -0.071294 -0.11126 -0.055821 -0.10221 -0.14041 -0.15257 0.044402 -0.096573 -0.16212 0.0090069 -0.020492 -0.0021911 -0.049844 0.098045 0.29575 -0.020876 0.15374 0.087975 -0.12364 0.20117 0.29394 0.28659 0.15984 -0.10656 -0.036411 0.14314 0.039171 0.19213 0.1534 0.029366 -0.31137 -0.0060554 -0.20203 0.089941 -0.32676 0.0085342 -0.28388 0.15349 0.039735 -0.10267 -0.094662 -0.20889 0.39626 -0.12548 -0.0027617 0.16041 -0.043348 0.13706 -0.16362 0.022511 -0.011265 0.30174 0.11556 0.01097 0.19303 -0.027003 0.019814 0.013123 -0.545 0.13857 0.049759 -0.14653 0.10971 0.32521 0.15844 0.037102 0.24245 0.041009 0.049447 0.014135 -0.089234 0.084492 0.092157 -0.11337 -0.052444 -0.031326 -0.11648 0.2932 0.0031448 0.21215 0.16801 0.2415 -0.22259 0.11848 0.068548 0.14104 -0.061063 -0.058984 -0.057208 -0.049832 0.07565 -0.080158 0.1156 0.077124 -0.34108 -0.026441 0.17516 -0.30088 0.29281 0.18254 0.1477 0.10225 0.19819 0.24058 -0.015777 -0.067444 0.12974 -0.03702 0.025708 0.29798 -0.21592 0.014586 0.0057065 -0.10055 -0.11504 -0.073139 -0.23257 -0.24098 0.27139 0.11188 -0.21431 -0.16451 0.11759 0.11121 -0.050773 0.0063137 -0.061409 -0.099676 0.1932 -0.11686 -0.21731 0.24815 -0.088458 -0.20449 -0.037863 0.19177 -0.15593 -0.059274 -0.16594 0.012326 -0.031775 -0.032988 -0.034096 -0.0061115 -0.050503 -0.047632 0.11414 0.15443 0.13946 0.31676 -0.12527 0.044485 0.26218 -0.095393 -0.0010636 -0.027432 0.1418 -0.10739 -0.28139 -0.11037 -0.021173 -0.10759 -0.011278 0.18329 -0.04752 0.077393 -0.027138 -0.062813 0.14405 0.060754 -0.025666 -0.06125 0.16475 0.11963 0.073786 0.30743 -0.077373 0.28798 0.0062975 0.09135 -0.20001 0.075919 -0.011914 0.0053479 0.032659 -0.26575 0.022183 0.2287 -0.050009 0.41615 0.13517 0.12694 0.086458 0.16613 -0.071396 -0.044101 -0.0090723 -0.0062024 0.20982 -0.1268 0.14094 0.0077501 0.12211 0.043938 0.12501 0.25028 0.32439 0.038811 -0.020993 -0.28286 0.28073 -0.0024895 -0.078012 0.052062 -0.11776 0.069248 0.10534 0.062466 0.13367 -0.21402 -0.21105 -0.14956 
năm 0.1046 0.034576 0.041404 -0.046695 0.20449 0.081795 -0.23369 0.085429 0.13014 -0.067672 0.035483 -0.084168 -0.38541 -0.014267 -0.15897 0.097176 0.044172 0.083353 -0.50745 0.018571 -0.13686 -0.29158 -0.18828 -0.01244 -0.47044 0.31825 0.14224 0.11313 0.31765 -0.0087183 -0.15811 -0.25107 -0.19919 -0.2192 -0.17132 0.095912 0.069986 -0.15437 -0.061217 -0.14775 -0.36972 -0.086574 -0.23425 -0.12541 0.029271 -0.26754 0.055116 -0.33189 0.26934 0.089286 -0.077356 -0.071853 0.042532 -0.0091874 0.30809 0.050686 0.068483 -0.062034 0.35926 -0.28177 -0.070053 -0.15643 0.19925 0.22018 0.1246 -0.095682 0.020605 0.19954 0.12301 -0.067365 -0.33497 -0.010786 -0.13078 0.20758 -0.38005 -0.040686 -0.16131 0.043099 0.045947 -0.14938 -0.13439 0.0085555 0.0004117 -0.14973 0.04457 -0.30381 -0.05166 -0.024483 -0.10626 -0.047544 0.011271 0.18814 0.22961 0.12595 -0.26577 -0.31965 -0.19009 0.15465 0.31646 0.082165 0.25146 -0.074356 -0.39977 0.20179 0.065522 0.24833 0.21786 0.1585 -0.14563 0.016639 -0.18267 0.0055366 -0.39241 -0.027399 0.076345 0.37296 0.17032 0.19931 -0.094252 0.0031008 0.24319 -0.025156 0.096578 0.0017787 0.20134 -0.037958 0.023326 -0.017703 0.27263 0.47611 0.19803 -0.27949 0.15972 -0.065558 0.22719 -0.049701 -0.11975 0.18261 0.12119 -0.0076239 0.014423 0.49663 0.23563 -0.010983 0.35553 -0.25508 -0.20346 0.070496 -0.36401 0.25214 -0.3725 0.070809 -0.25693 -0.036551 -0.18598 0.21516 -0.19285 0.10963 -0.15487 0.20588 -0.24564 -0.059456 0.0082658 -0.056871 0.083421 -0.33038 0.12123 -0.19266 0.018041 0.19492 -0.03857 0.19402 -0.042331 -0.108 -0.025817 -0.11756 0.10414 0.0089376 0.22759 0.33374 -0.084351 -0.12984 0.3526 0.17248 -0.14797 0.26302 -0.16067 0.41305 -0.21602 -0.2626 -0.22046 -0.068777 -0.30568 -0.15068 0.029573 -0.29337 -0.10658 0.1797 -0.32642 -0.20701 0.10006 0.12985 -0.087081 -0.37124 0.027672 -0.093552 0.19374 -0.19187 -0.11562 -0.05771 0.23659 -0.056335 -0.25856 0.12394 0.3322 -0.10294 -0.12848 -0.082039 -0.07615 -0.021769 0.1339 0.079806 -0.04985 -0.03367 0.26537 0.27976 -0.03251 0.42419 -0.25441 -0.075362 -0.039789 -0.15942 0.072449 -0.078238 0.14698 0.0042829 0.17479 -0.21107 -0.48235 0.13567 -0.33143 0.16078 -0.0483 0.26828 0.50982 0.025446 -0.36725 0.10186 -0.20086 0.3601 -0.13838 0.20849 0.05056 0.26905 -0.2998 0.23904 -0.036571 -0.26715 -0.14402 -0.17172 -0.07598 -0.049278 0.13947 -0.076528 0.10805 0.2795 -0.17677 0.22327 -0.20653 0.17391 0.051612 0.11621 0.07788 -0.41703 -0.0066455 -0.38103 0.088617 0.039062 0.025948 0.13683 0.19757 -0.13828 0.15096 -0.055016 0.12038 0.074002 0.15036 0.069156 -0.49398 -0.036336 -0.040374 0.084536 -0.33039 0.051027 -0.10035 -0.29615 0.16182 0.063849 0.19305 0.046106 
của 0.10683 0.054714 0.083928 0.15837 0.068278 0.16908 -0.098473 0.14106 0.099536 -0.19488 0.046165 -0.2815 0.012031 0.082979 0.17418 0.1644 0.03372 -0.049217 -0.19782 -0.39961 -0.14389 -0.093513 -0.16386 -0.11134 -0.19378 0.10235 0.012225 0.27451 0.25352 0.15924 -0.017103 0.1341 -0.030131 -0.22918 -0.033545 0.20527 0.024359 -0.0040206 0.28833 0.0051517 -0.088778 -0.0083005 -0.084737 0.28476 0.17684 -0.063152 -0.18248 0.051947 0.16396 -0.074061 -0.15796 -0.16042 -0.05672 -0.25148 0.27475 0.15463 0.016848 0.086671 -0.01785 0.095141 0.048425 -0.13381 -0.23437 -0.060385 0.12399 0.13316 0.36607 -0.15507 0.015022 0.021 -0.31257 0.038033 0.011247 -0.12652 -0.031917 -0.066864 0.14911 0.047227 -0.23442 0.14742 0.050016 -0.095409 -0.11273 -0.074381 -0.0058737 0.19104 0.13493 -0.17972 0.010387 -0.022125 -0.068369 0.11186 0.13361 -0.13404 -0.1404 0.10642 -0.038357 0.079846 0.064748 0.091348 0.17063 -0.084919 0.008812 -0.031742 0.039551 0.12197 -0.20164 0.014464 -0.32354 -0.063161 0.099866 0.15636 -0.10179 -0.069537 0.19486 0.028428 0.063269 0.32101 -0.17548 0.021737 0.24658 -0.057244 -0.10726 0.047793 0.20359 0.016646 -0.27433 -0.19334 0.10436 0.57482 -0.058061 0.072894 0.16054 -0.068138 0.037728 0.082671 0.017136 0.062118 0.21446 0.058445 0.14432 0.26216 0.21658 0.11381 -0.047672 -0.07574 -0.32417 -0.030854 -0.043981 -0.060738 -0.01077 -0.27834 0.079678 0.044347 -0.02525 0.24182 0.10825 -0.12674 0.022366 0.017354 -0.18662 -0.10957 -0.18044 0.12457 0.17458 -0.13691 0.3506 0.010109 -0.023762 0.0343 0.18074 0.048882 0.024005 0.18453 0.11504 0.082446 0.1559 -0.35009 0.16024 0.28586 0.19678 0.13713 0.16367 0.031659 -0.14724 0.025192 0.0027038 0.13022 0.069519 0.016686 -0.21454 0.06029 -0.082453 0.12934 -0.14592 -0.10709 -0.25825 -0.019398 -0.059703 -0.1405 -0.039516 0.16629 0.055233 0.0084673 0.25685 0.026323 -0.028238 -0.032978 -0.074854 -0.055104 0.0010266 -0.096298 -0.25513 0.0017578 0.093611 0.025447 0.029435 0.26688 -0.16513 -0.0097967 -0.21043 -0.10618 -0.12472 0.051743 -0.017036 0.23342 0.053071 0.085089 0.14584 -0.12552 0.28535 0.12414 -0.044443 -0.25024 0.02497 0.0062577 0.06226 -0.1451 -0.29446 0.10758 0.15481 0.0077294 0.056165 0.040033 0.35728 0.039749 -0.16193 -0.0059976 0.14366 0.1434 0.58167 0.073718 -0.14513 -0.070792 -0.04644 -0.10212 0.15211 0.066964 0.17177 -0.072805 0.019531 0.073635 -0.04933 0.073888 0.066609 0.0080292 -0.047714 0.13533 0.12423 -0.05903 -0.066032 -0.075942 0.15156 -0.077359 0.1455 -0.065256 0.027407 -0.17815 -0.13469 0.010854 -0.076946 0.14257 0.10288 -0.073496 0.11742 0.01274 -0.23739 0.068223 0.13743 -0.062642 0.067532 -0.057033 -0.13694 0.022272 0.17411 -0.065245 0.16508 -0.11409 -0.13343 -0.19384 
- -0.14136 -0.32712 -0.055273 0.23794 0.31849 0.18619 -0.17503 0.19947 -0.10035 -0.085316 -0.046744 -0.056784 -0.35822 0.13149 0.21447 -0.23299 -0.21463 0.19336 0.10726 0.01106 -0.093796 -0.15432 0.068624 0.016386 -0.20234 -0.12613 -0.048784 0.021838 0.05974 -0.229 0.024942 0.30767 -0.21182 -0.13937 0.062239 0.037968 0.1798 -0.22748 0.337 -0.058629 0.0078161 0.054261 -0.15675 -0.15966 -0.044305 -0.065211 0.14496 0.063649 0.062809 0.013769 0.10877 -0.011943 0.0085056 -0.46025 -0.02531 -0.34211 -0.024267 0.055845 0.045055 -0.25362 -0.15143 0.088165 -0.18905 0.054482 0.070134 0.033048 -0.075795 0.21545 0.075864 -0.022498 -0.11332 -0.048035 0.16006 -0.2822 0.16503 -0.023328 0.14491 0.11345 -0.099482 -0.16232 0.55607 0.010452 0.035094 0.012912 0.01004 0.067816 0.35513 0.10152 -0.30784 0.18146 -0.30697 0.28099 0.26853 0.11308 0.043647 -0.19475 -0.094079 0.338 -0.005667 0.22945 0.078584 -0.16106 -0.098049 0.021066 0.029483 0.39825 -0.010826 0.026385 -0.1851 0.09003 -0.067119 0.36272 -0.62392 0.16957 -0.23932 -0.21562 0.12361 0.15342 0.048674 -0.1064 0.50745 0.00029683 -0.26147 0.11276 -0.17746 0.30886 -0.049207 -0.099521 0.22108 0.41599 -0.097988 0.18431 0.17907 -0.30915 -0.041362 -0.041445 -0.15173 -0.16571 0.063063 -0.024736 0.043347 0.25444 0.24231 -0.14711 0.30986 -0.013674 -0.014354 -0.015817 -0.28953 -0.01675 0.013934 -0.41326 0.08015 0.0063457 -0.51724 0.26382 0.15313 0.38191 0.064762 0.0033228 -0.22044 0.16968 -0.025991 -0.17812 -0.064352 0.069268 0.089641 0.079052 -0.14644 -0.18766 0.12913 0.17179 -0.27184 0.12933 0.052819 -0.29798 -0.20388 0.04335 -0.22029 0.12651 0.1061 -0.043941 -0.0019756 0.063765 -0.13477 -0.050982 -0.32844 0.42613 -0.23523 0.087239 0.093112 0.024215 -0.24628 -0.19874 0.027671 0.039398 0.2477 0.15697 0.060428 -0.18849 0.13909 0.19615 0.23695 -0.14819 0.16846 -0.18279 -0.14054 0.08078 0.029898 0.089255 -0.14153 -0.066914 0.016028 0.27172 0.2498 -0.14194 -0.019595 0.01328 -0.16823 -0.25566 0.2151 0.21647 0.11468 0.069226 0.45511 -0.19314 0.14318 0.239 -0.14126 -0.075959 0.26558 -0.056768 -0.1125 0.025341 -0.19871 0.20677 -0.34848 0.13965 -0.038955 -0.2528 0.11337 -0.23868 0.37165 -0.053951 0.11153 -0.017119 0.029467 0.22625 0.38177 -0.054445 0.18563 0.096472 -0.28809 0.012361 -0.062841 0.04304 0.11254 0.27101 -0.14662 -0.019082 0.25953 -0.023216 0.24781 -0.17298 0.14745 0.12222 -0.091327 0.18613 0.25574 -0.25724 -0.01073 0.095681 0.050829 -0.057482 -0.11435 -0.10604 0.46167 0.078605 0.22156 0.2586 0.10802 -0.18377 0.068065 0.084288 0.22471 -0.36716 -0.036606 0.0047498 0.26523 -0.14034 -0.12739 -0.33542 -0.17149 -0.061472 -0.0526 -0.12249 0.31801 -0.0095477 -0.44184 -0.18458 
và 0.083682 0.25187 0.11841 0.14185 -0.045012 0.1075 -0.10298 -0.09671 -0.02959 -0.37473 -0.058201 -0.26304 0.097417 -0.17448 0.21389 0.068449 -0.026767 0.1418 -0.021995 -0.17494 -0.060522 -0.088376 0.08796 0.073836 -0.049503 0.070589 0.011581 -0.055394 0.22307 -0.0081363 -0.0013565 -0.14534 -0.065383 -0.18054 -0.045341 0.12588 0.017248 0.12227 0.18671 0.021992 -0.039074 0.088575 -0.13616 0.22218 0.19957 0.00062485 -0.045127 -0.050755 0.097294 -0.088896 -0.14195 -0.0022355 0.070073 -0.19957 0.15942 0.10855 0.094475 -0.025142 0.050629 -0.11111 0.090202 -0.21459 -0.12408 0.16578 -0.076522 0.060799 0.031218 -0.10053 -0.0019419 -0.17052 -0.17202 0.23652 0.087434 -0.14308 0.029166 0.0091442 0.15564 -0.029398 -0.14777 -0.0085841 0.15187 -0.030397 -0.023435 -0.030482 -0.01269 0.099267 -0.012846 -0.22872 0.096822 0.022434 0.0041615 0.15313 0.20592 0.10041 0.15267 0.11365 -0.1301 0.013744 0.25577 0.073311 0.19103 -0.16205 0.061479 -0.040341 -0.076075 0.12785 -0.11795 -0.042061 -0.28822 0.092081 0.028349 0.11662 -0.11216 -0.027883 0.24326 0.07553 -0.15415 0.27727 0.098147 -0.059721 0.18349 0.015415 -0.16025 0.019322 0.055489 0.18385 -0.08786 -0.021867 -0.025637 0.30852 -0.11363 0.12863 -0.005143 -0.075659 0.011113 -0.26016 -0.053687 0.17124 -0.059004 -0.031896 0.085017 0.12993 0.15614 0.21881 0.17905 -0.10485 -0.12519 0.0066025 -0.079075 -0.085312 -0.0039994 -0.27252 0.022432 0.14007 0.049806 0.24044 0.12165 -0.026244 0.045859 -0.066523 -0.11915 -0.022786 -0.17238 0.024057 0.021797 -0.099664 0.15159 -0.11915 -0.10254 -0.12632 0.29822 0.038531 0.0054633 0.10586 0.059407 0.018944 0.11821 0.040132 -0.051822 0.16516 0.084505 0.17722 0.17245 -0.061075 -0.24472 0.077122 -0.023897 0.15536 0.06442 0.094982 -0.070496 0.033631 -0.087112 0.090374 0.033207 -0.11229 0.013963 0.1316 -0.09289 -0.30196 -0.0031856 0.18587 0.15393 -0.16644 -0.0079281 -0.02588 -0.099635 -0.0037763 0.025579 -0.094024 -0.034732 -0.18852 -0.094766 0.21333 0.11892 -0.10244 0.10889 0.24093 -0.12487 0.019799 -0.25531 -0.020919 -0.23457 0.076233 -0.060734 0.15032 -0.073446 0.091166 0.069989 0.018728 0.093987 0.10449 0.052508 -0.15823 0.0892 -0.069031 -0.057899 -0.22306 -0.10882 -0.014484 0.11307 -0.050959 0.10773 -0.00046748 0.059218 0.02254 -0.13198 0.10443 0.05071 0.23252 0.31467 0.14383 -0.0023418 0.076177 -0.040507 0.028125 -0.0047689 0.028781 0.09373 -0.1265 0.085288 0.097163 0.061057 -0.0096313 0.17054 -0.026113 -0.056832 0.23106 -0.0079262 0.037607 -0.0072528 -0.023618 0.11053 -0.11302 0.080816 0.060609 0.089816 -0.15587 -0.038561 -0.037662 0.0050274 0.051678 0.074956 -0.19381 0.10198 0.05867 -0.13236 0.02263 0.17577 0.043854 -0.067598 0.015019 -0.0051132 -0.15042 0.23056 -0.087244 0.011609 0.065487 0.0062605 -0.14384 
trong -0.033716 -0.10475 0.0030238 0.010665 -0.19492 0.13301 0.086272 -0.10777 0.21224 -0.24854 0.052216 0.091011 0.12766 -0.30801 -0.053854 0.23259 0.21864 -0.014092 -0.27712 -0.33023 -0.48006 0.022631 -0.032049 -0.20929 0.038049 0.10321 0.027243 0.18372 -0.070504 0.027343 0.077358 0.041126 0.13276 -0.18236 0.15526 0.086519 -0.10319 0.20545 -0.16539 -0.27702 0.091668 0.13132 0.27878 0.083129 -0.048211 -0.056106 0.068744 0.11971 0.034503 0.06709 0.12587 -0.11751 -0.00054305 -0.4719 0.13277 0.13028 0.25253 0.12675 0.28932 -0.0032354 -0.17548 -0.21013 -0.066667 -0.1649 0.086179 0.17578 0.16622 0.16857 -0.23396 0.15354 -0.069457 -0.335 -0.15831 -0.14237 -0.19111 0.25109 -0.055368 0.090996 0.058163 -0.12275 0.34049 -0.17295 -0.18318 -0.081362 0.044093 -0.067843 -0.067087 0.04224 0.14258 -0.17193 -0.063487 0.021848 0.33996 -0.21424 -0.21458 -0.097682 -0.26794 0.04359 -0.074774 -0.014598 0.14975 -0.18935 -0.1337 0.09391 -0.13505 0.30981 0.082583 -0.040905 -0.24926 -0.026543 -0.12196 0.028208 -0.17105 0.07321 0.11585 0.049368 0.013675 0.12952 0.009517 -0.10175 0.17355 0.1017 0.14114 -0.10251 0.13934 0.12282 -0.16968 -0.36954 0.049823 0.03193 0.20058 -0.38917 0.12757 0.03068 0.088083 -0.13733 0.12486 -0.097172 -0.18782 -0.10116 -0.14746 0.13863 -0.016336 -0.036718 0.051827 -0.05041 -0.039047 0.090213 0.028007 -0.37786 -0.051719 -0.055274 -0.2895 0.093824 0.04122 0.46017 0.033642 0.15274 0.21331 0.058088 0.091556 0.072713 0.065134 0.041945 -0.14792 0.066109 -0.0107 -0.098777 0.18204 0.2273 -0.072766 0.12653 0.053259 0.11218 -0.037137 -0.024257 -0.086562 -0.078784 0.092024 0.15544 0.0089156 -0.068381 -0.042802 -0.070851 -0.0016727 0.25154 -0.1235 0.18743 0.20858 -0.27234 -0.18658 0.011576 -0.17745 0.043963 -0.12462 -0.20069 0.28325 -0.086843 0.0044365 -0.2775 -0.13153 -0.075538 -0.073402 -0.2079 0.039739 0.028269 -0.1657 -0.16759 -0.12496 0.15327 0.037117 -0.24692 -0.047035 0.031159 0.17135 -0.33838 -0.017153 0.18196 -0.031888 -0.071549 -0.015876 0.25846 -0.046216 -0.097544 0.04915 0.51905 -0.036869 0.23528 -0.051058 0.29414 0.07889 0.22443 0.086649 -0.2051 -0.028432 -0.052498 0.07251 -0.030318 -0.20949 0.20049 -0.10198 0.0049278 -0.12361 -0.18024 0.34661 -0.0066159 -0.1209 0.27646 0.079468 0.30566 0.27196 0.21188 0.12627 -0.20331 -0.29068 0.11224 -0.013226 0.065434 -0.028146 -0.12966 0.1249 0.04105 0.25281 -0.29633 0.20327 0.15956 -0.17502 0.26736 0.098869 0.0072504 -0.20573 0.036145 -0.014979 -0.37045 0.018089 -0.0041054 -0.18604 -0.26264 0.082858 0.0006683 0.20973 -0.10618 0.049196 0.033466 0.071035 -0.16696 -0.046869 -0.03357 -0.20514 -0.32771 -0.1303 0.093016 -0.1281 0.37266 -0.068775 -0.25921 0.28409 -0.092699 -0.22947 0.21924 
loài -0.4038 -0.09475 -0.070851 -0.21397 -0.033321 -0.14826 0.14577 -0.16971 -0.076851 -0.33268 -0.4042 0.064143 0.41683 -0.25385 -0.077109 -0.22164 -0.04645 -0.051629 -0.071518 -0.20391 -0.45636 -0.067803 -0.22711 -0.13294 0.21275 -0.31655 -0.14604 -0.013238 0.22887 -0.096471 -0.21929 -0.17707 0.28675 -0.26094 0.30932 0.081994 0.34885 0.25803 -0.15562 -0.064254 0.14583 0.14252 0.56309 0.12109 -0.55305 -0.24223 -0.016033 -0.37817 -0.01313 0.46008 -0.05655 -0.073634 0.18287 -0.624 0.2711 0.32426 0.11578 0.20217 0.21496 -0.035152 -0.37522 -0.26911 0.083547 -0.043414 -0.03718 -0.033793 -0.019683 -0.12921 -0.045154 -0.038628 0.10357 -0.90916 0.24514 0.34454 0.21042 0.42936 -0.14163 0.062427 -0.016616 -0.31342 0.2124 -0.15479 -0.24775 -0.15273 0.0025053 -0.14037 0.25442 0.002042 0.085521 -0.11824 -0.56555 0.05435 0.4982 0.01361 -0.39239 -0.52103 -0.48103 -0.13983 0.18518 -0.054919 -0.2315 -0.15868 -0.24644 0.69867 -0.22322 0.398 -0.087508 -0.017806 0.078829 0.20493 0.23206 -0.2314 -0.21054 -0.067994 0.066943 0.33908 -0.31258 -0.20664 -0.22978 -0.13247 0.038983 -0.098798 -0.12081 0.15686 0.12017 0.20885 -0.14022 -0.31527 0.13215 0.10807 0.11228 -0.46678 0.19205 0.2177 -0.041711 -0.34353 0.15269 -0.12409 -0.50341 -0.26151 0.066797 0.27698 -0.25085 -0.047389 0.11513 0.31157 -0.010807 0.41235 0.34904 -0.30484 -0.097422 -0.026435 -0.11599 -0.35834 0.014061 0.25088 0.28691 0.31816 0.049725 -0.34179 -0.00014849 0.17557 -0.036392 0.27614 -0.17784 0.49671 0.0023823 0.024772 0.073809 0.32368 -0.14888 -0.22067 -0.13549 0.026653 -0.092404 0.21574 -0.29493 -0.012215 0.14136 0.31261 -0.17295 -0.039152 0.12075 -0.52948 -0.2386 -0.14035 -0.1473 0.19457 0.521 -0.35694 0.16926 -0.19463 -0.14632 0.16701 -0.29838 -0.4305 0.037439 0.0020067 -0.1453 0.034783 0.10951 0.30872 0.20368 -0.17814 -0.016171 -0.24774 0.1097 -0.0034494 -0.046822 0.26244 -0.20805 -0.47345 -0.23535 -0.7046 0.52202 -0.62745 0.2938 -0.09697 0.26405 0.0027796 0.48772 -0.13516 0.10348 -0.29376 -0.022236 0.41447 0.15465 0.17437 -0.23708 0.24335 0.17525 -0.10255 -0.1967 -0.51741 0.27256 0.19407 -0.3075 -0.19863 -0.1947 0.2494 0.1034 0.30444 -0.1277 -0.20278 0.60555 -0.1823 -0.27963 0.16382 -0.10255 0.40877 0.58481 0.30013 0.33371 -0.38351 -0.33775 0.12803 0.41313 -0.40111 -0.029669 -0.2585 0.3262 0.26809 0.093264 -0.15702 0.2617 0.17587 -0.32096 0.3127 -0.035262 0.26611 -0.43792 0.10579 0.22895 -0.4999 -0.10697 0.15959 0.020649 -0.021093 0.53368 -0.15524 0.13089 0.31101 -0.11472 0.10114 0.11761 -0.24704 -0.10905 0.077212 -0.32384 -0.11058 0.0018366 0.12223 -0.087716 0.52833 -0.051185 -0.14577 0.25904 -0.3889 0.12993 -0.11687 
có 0.078051 0.065018 0.04935 -0.00080065 -0.13919 -0.17024 -0.037847 -0.049645 0.066242 -0.19078 0.016079 -0.19732 0.1304 -0.21457 -0.10888 0.26531 0.056986 -0.01097 -0.16229 -0.083705 -0.2195 0.078484 -0.039938 -0.062247 0.066268 0.1205 0.012155 -0.049893 0.34956 0.00070886 0.076374 -0.01336 0.086847 -0.012663 0.027831 0.037238 0.089048 0.24597 0.19121 0.019188 0.13014 0.16224 -0.11258 0.10109 0.055821 -0.2419 0.093059 -0.087466 0.18256 -0.083076 0.27512 -0.0043793 -0.12092 -0.33052 0.2577 -0.21626 0.12779 -0.01629 0.055216 -0.12226 -0.22027 -0.30113 -0.044466 -0.10065 -0.27128 0.26893 0.15105 0.10188 -0.20025 0.028672 -0.0039813 -0.25837 0.035718 0.0020807 -0.4693 -0.03996 0.0086087 -0.17239 -0.14742 0.24657 0.25047 0.0089904 -0.026331 -0.12972 0.01786 -0.14732 0.01476 -0.067629 0.041213 -0.1372 -0.27615 0.081023 0.30796 -0.18468 0.13733 -0.14822 -0.081313 0.047191 0.14225 -0.13071 0.1043 -0.050614 -0.10832 -0.20745 -0.20341 0.28582 -0.15688 -0.00018373 -0.1771 -0.063078 -0.062708 -0.057837 -0.10139 -0.088599 0.16967 0.23349 -0.22485 -0.022361 -0.082995 0.10087 0.17941 -0.25283 0.058192 0.093511 0.12394 0.068477 -0.35719 -0.28511 0.10778 0.23871 0.029555 -0.062364 -0.2037 0.023642 0.12036 0.092189 0.20429 -0.068091 -0.097638 -0.14127 -0.20758 0.22048 0.14639 0.088173 0.10724 0.17079 0.010682 0.36514 -0.090202 -0.15152 -0.21902 -0.17325 -0.2152 0.10903 0.03849 0.081146 0.12614 0.02017 0.12963 0.19407 -0.039501 0.127 0.31525 0.12834 0.17778 0.054494 0.032209 -0.19404 0.31251 0.43625 0.10037 -0.044362 0.13894 0.092494 0.23051 -0.12851 0.063774 -0.095775 -0.16116 -0.023594 0.21244 -0.38214 0.26473 -0.10573 -0.38452 0.20445 -0.10204 0.39669 0.27686 0.041623 -0.15402 0.056201 0.12867 -0.10171 0.0085131 -0.00051199 0.18628 -0.19643 -0.11478 -0.31203 0.151 -0.31675 0.1189 -0.2843 0.021959 -0.059856 -0.16962 -0.039322 -0.0039087 0.068634 -0.075107 -0.15017 -0.19823 0.069891 -0.019268 -0.023093 0.11534 0.2315 -0.10382 -0.11585 0.09755 -0.009041 0.028784 -0.14207 -0.080657 0.28532 -0.085558 0.14476 0.035243 0.039869 -0.025366 0.30363 0.15196 -0.082156 0.34471 0.15139 -0.027507 -0.23016 -0.41352 0.12652 -0.2232 0.022693 -0.082712 -0.23411 0.060604 0.087083 -0.31175 0.32812 -0.047018 0.18856 0.25849 0.054716 0.22001 0.10837 -0.24267 -0.18161 0.0054201 -0.089922 0.10875 -0.097119 -0.10661 0.13327 0.15836 -0.19713 0.051896 0.1125 -0.26738 0.29076 0.24416 0.19577 -0.034597 0.30986 0.054465 -0.23885 -0.017755 0.052432 0.063764 -0.2945 0.072779 0.10512 0.22404 0.031127 0.11985 -0.057491 0.19958 0.042332 -0.058781 0.25565 -0.0019051 0.0036087 -0.011991 0.055923 -0.021082 0.37745 0.12652 -0.2071 0.099702 -0.11199 -0.070259 0.22914 
các 0.11959 0.06063 -0.1358 -0.112 -0.16836 0.050998 0.02239 -0.026417 -0.014351 -0.50645 0.067038 -0.24127 0.27802 -0.018657 0.13823 -0.091646 0.041045 0.074326 -0.1741 -0.16437 0.096076 -0.05208 -0.079545 -0.13494 0.079022 -0.039429 -0.023758 0.068055 0.0053867 0.12048 0.048418 -0.09432 -0.012169 -0.27794 -0.17946 -0.017449 0.095406 0.021579 0.13434 0.042241 -0.09568 0.17509 -0.17445 0.56756 0.16155 0.21663 -0.14415 -0.10961 -0.098439 -0.0082257 -0.16747 -0.11302 0.23716 -0.21996 0.17326 0.2015 0.19454 -0.14874 -0.18714 -0.21556 -0.028412 -0.11414 -0.094337 0.042743 0.033722 0.21362 0.056994 0.13162 0.0079573 0.060531 -0.16661 0.047485 -0.0076445 -0.12271 -0.1654 -0.031761 -0.12452 0.026812 0.020907 0.030897 0.22069 -0.058431 -0.027808 0.031481 -0.11625 0.23963 -0.0072555 -0.46177 0.027821 -0.028154 0.033105 0.033324 0.20521 0.13074 0.1845 -0.082999 -0.063927 -0.048001 0.094079 0.031212 0.22499 -0.15927 -0.0071944 -0.15331 -0.041425 0.1025 -0.16645 -0.22144 -0.13531 -0.018657 -0.19975 0.10847 -0.078456 0.26407 0.088591 0.03898 -0.18981 0.11178 0.10861 0.0054259 0.23705 -0.0754 0.14121 0.0433 0.026056 0.052436 -0.1547 -0.26308 -0.047028 0.21387 -0.057467 0.10745 0.015624 -0.06527 0.054079 -0.18314 -0.15177 0.2201 -0.12239 -0.11333 0.050317 -0.0035813 0.20245 -0.029362 -0.050001 0.035099 -0.20927 0.06424 0.022216 -0.18202 -0.1289 -0.32825 -0.11015 0.04358 -0.19846 0.51253 0.19735 -0.14346 -0.15717 -0.024477 -0.058637 0.27374 -0.087431 -0.079642 0.11468 0.0063759 0.32965 -0.083614 0.0025786 -0.15947 0.16457 0.041282 0.10789 0.046661 0.14239 -0.031722 0.068813 -0.2277 -0.041297 -0.043859 0.19726 0.20566 0.27997 0.070144 -0.076679 0.1528 0.034003 0.049573 0.16053 0.035475 -0.27901 0.12958 -0.25674 0.39428 0.1276 -0.20861 0.012427 0.10077 -0.23471 -0.45266 0.039109 0.22344 0.019214 -0.23598 0.14078 -0.023489 -0.06605 -0.10515 -0.060132 0.12414 -0.14046 -0.20649 -0.061666 0.071288 -0.097851 -0.13868 0.1926 0.29422 -0.075233 0.075596 -0.22163 -0.10813 -0.011219 0.11251 -0.016869 0.13653 -0.067594 0.013879 0.17255 -0.079376 -0.12862 0.069104 -0.086615 0.061214 0.1727 -0.049427 0.037445 -0.24116 -0.15589 -0.18571 0.094485 0.06289 -0.076552 -0.11611 0.05698 0.08473 -0.13748 0.18819 0.3212 0.14322 0.21879 0.13799 0.010428 -0.063236 0.078431 -0.18626 0.10394 -0.026178 -0.044111 -0.16926 -0.052245 0.078879 0.14989 0.038 0.020946 0.34015 0.010475 0.22941 0.18842 0.13463 -0.17264 -0.12026 -0.14564 -0.050343 0.22601 0.034382 0.15641 -0.075594 0.059605 0.083222 -0.029818 0.023617 0.17794 -0.22549 0.27534 -0.075359 -0.22789 0.089203 -0.11734 0.18295 0.0097189 0.062869 0.1237 0.060204 0.30562 -0.12172 0.092912 0.097503 -0.10322 -0.21366 
này 0.0060062 0.029346 -0.12852 -0.17426 -0.013245 -0.09123 0.099491 -0.013235 0.22193 -0.20736 -0.25772 -0.010736 -0.022708 -0.072194 -0.012813 0.1612 0.15315 -0.082225 -0.34675 -0.11193 -0.23392 -0.12146 -0.33011 -0.14388 0.0090634 0.14511 0.10493 -0.04657 0.15773 -0.20065 0.20735 -0.35516 0.033358 -0.17367 0.06532 -0.052758 0.10886 -0.003547 -0.12369 -0.014021 -0.052469 0.016178 0.23548 0.08717 -0.0058016 -0.37845 0.08517 -0.20663 0.18685 0.15101 -0.042201 -0.037304 -0.044322 -0.37822 0.20086 0.065634 0.19302 0.0027067 0.21963 -0.26968 -0.26676 -0.10061 -0.0025727 -0.014208 0.1187 0.048733 0.18524 0.039593 -0.12 0.21935 -0.0034777 -0.41135 0.046952 0.15335 -0.45512 0.27643 -0.19028 -0.24056 -0.2514 0.015879 0.10226 -0.032645 -0.025339 -0.15277 -0.15472 0.091144 0.24446 -0.056397 0.10451 -0.14835 -0.27558 0.10467 0.42361 -0.20233 -0.14911 -0.27149 -0.27334 0.22293 0.010223 0.10637 0.26828 -0.13114 -0.15983 0.24787 -0.10183 0.39965 -0.0077519 -0.11215 -0.098977 -0.038442 0.082561 -0.14773 -0.28285 -0.092555 -0.022889 0.074626 -0.14831 0.1412 -0.17606 0.088937 0.34725 -0.32199 0.1927 -0.15543 0.077823 0.024397 -0.16989 -0.17989 0.2373 -0.047562 0.25673 -0.3201 -0.030617 -0.14069 0.078394 -0.071982 -0.033056 0.059588 -0.18227 -0.238 -0.1416 0.18901 -0.01254 -0.027269 -0.015902 0.051243 -0.2451 0.21808 -0.18453 -0.00085437 -0.17848 -0.0049603 -0.23503 -0.04077 -0.30586 0.24265 0.059237 0.083682 -0.019202 0.12037 -0.043033 0.1901 -0.061441 -0.029493 -0.094823 0.11123 0.093898 -0.31767 0.28496 0.41484 0.036323 0.16498 0.020058 -0.10734 0.041456 -0.072774 -0.088929 -0.20616 0.049485 0.053238 -0.025047 -0.33244 0.31982 -0.0051597 -0.094951 0.18976 -0.0088191 0.41186 0.23748 -0.23196 -0.071452 -0.042699 -0.18765 0.060395 0.10357 -0.33691 -0.080463 0.0031863 -0.17545 -0.052198 -0.11948 -0.095028 0.10347 -0.29823 -0.10709 -0.12285 0.15796 -0.17775 -0.044191 -0.046663 0.050366 -0.31032 -0.17293 -0.030956 0.20796 -0.30699 -0.003189 -0.037078 -0.012632 0.093475 0.14914 0.20084 -0.053684 -0.19499 -0.071662 0.3169 -0.25012 0.37892 -0.071329 0.12913 -0.089163 0.25705 0.017326 -0.30441 0.15457 -0.040064 -0.049639 -0.22922 -0.33883 0.24767 -0.14151 0.0144 -0.11955 -0.29026 0.36155 -0.089227 -0.26969 0.25411 -0.20576 0.33371 0.29025 0.36778 0.18298 0.0043354 -0.28199 -0.081077 0.27376 -0.41304 0.053517 -0.32431 -0.089289 0.057997 0.26087 0.027231 0.22489 0.35834 -0.056024 0.4313 0.082545 0.18017 -0.034415 0.1436 0.21115 -0.37993 -0.15206 0.024472 0.0093608 -0.048528 -0.0089634 0.030006 0.069489 0.1583 0.15898 0.13966 0.16946 0.0095487 -0.12718 0.098192 -0.42055 -0.10975 -0.04768 -0.12367 -0.28714 0.33183 -0.073097 -0.30459 0.21536 -0.28116 -0.0048211 0.0037108 
họ -0.13996 -0.070811 -0.080984 0.0014905 -0.012158 -0.092507 0.025085 -0.28505 0.20312 -0.12961 -0.012017 0.028986 0.16607 -0.38459 -0.080756 0.14923 0.20792 -0.065494 -0.28026 -0.23942 -0.51844 0.094143 0.10688 -0.12042 0.20211 -0.23404 -0.022321 -0.15641 0.034746 -0.18868 -0.22424 -0.35352 0.38386 -0.26747 0.21223 0.042635 -0.082771 0.29044 -0.3757 -0.20922 0.19493 0.14444 0.25797 0.098244 -0.2686 -0.11595 0.098265 -0.15952 -0.039689 0.31362 -0.0035113 -0.086773 0.02913 -0.4846 -0.18358 0.13139 0.12947 0.090762 0.28589 -0.14589 -0.2793 -0.55216 -0.054059 0.055178 0.088729 0.1677 0.039254 0.024542 -0.20017 0.041904 0.069947 -0.6134 -0.11814 0.17344 0.11097 0.23475 -0.21529 0.20286 -0.06754 -0.19004 0.21301 -0.17754 -0.28934 -0.09222 -0.11633 -0.26002 -0.058646 -0.14332 -0.023051 -0.054574 -0.22128 0.057619 0.37383 0.095111 -0.13786 -0.40236 -0.37 0.24088 0.11393 -0.010308 -0.055146 -0.096526 -0.14786 0.48572 0.011628 0.35236 0.062429 0.18452 0.012447 0.12572 0.040276 -0.10641 -0.04639 -0.11638 -0.025394 0.18635 -0.17742 -0.26639 0.0039167 0.074678 0.23691 0.064491 0.012728 -0.015325 0.069028 0.034782 0.11651 -0.23216 -0.049787 -0.15268 -0.049791 -0.42003 0.1217 0.30424 0.12394 -0.30907 0.056897 -0.091771 -0.2803 -0.38205 0.023393 0.089948 -0.22408 -0.1879 0.21738 0.30334 -0.077952 0.17584 0.3121 -0.31079 0.035575 -0.015972 -0.31653 -0.29905 0.14246 0.2132 0.32799 0.16802 0.20524 -0.14212 0.21595 0.162 -0.13332 0.019518 -0.20358 0.17297 -0.21161 -0.011297 0.074669 0.13139 -0.24041 -0.066877 0.10432 -0.024667 0.067832 0.1206 -0.48278 -0.16924 0.19631 0.32482 -0.13203 -0.18377 -0.067899 -0.097301 -0.11678 0.18764 -0.049503 0.25067 0.34246 -0.24105 -0.0048492 -0.078708 -0.20104 -0.019147 -0.10606 -0.20263 0.11849 0.010418 -0.12445 0.083448 0.14758 0.22653 0.069798 -0.43483 0.021693 -0.13891 -0.058848 -0.19743 -0.12224 0.38399 -0.10173 -0.18721 -0.193 -0.40456 0.39299 -0.46706 0.3372 0.27795 0.16556 0.050061 0.16861 -0.086048 -0.019649 -0.27772 0.0052014 0.45181 0.016491 0.2018 -0.22326 0.2649 0.1644 -0.02864 -0.15243 -0.46661 0.14742 -0.014311 -0.094451 -0.16529 -0.0012854 0.38559 0.030209 0.018696 -0.33668 -0.22043 0.7112 0.046428 -0.29603 0.49513 -0.021952 0.29886 0.24734 0.27709 0.25851 -0.21993 -0.2147 0.043419 0.19768 -0.22358 -0.046646 -0.18491 0.073378 0.24586 0.21966 -0.2106 0.40672 0.23788 -0.26833 0.23519 0.12737 0.11814 -0.43438 -0.047938 0.16969 -0.25019 0.03824 0.06117 -0.1331 -0.11771 0.31754 -0.1663 0.18311 0.033914 -0.0030451 0.034383 0.20182 -0.070408 -0.16711 0.077981 -0.32543 -0.03033 -0.050867 0.19624 -0.097515 0.29718 0.07148 -0.23175 0.15422 -0.28711 -0.17885 0.14829 
tả 0.089438 -0.072912 0.159 -0.24697 -0.051519 -0.031966 -0.12822 -0.070482 0.14812 -0.29709 -0.058557 -0.2407 -0.03304 -0.031545 0.26378 -0.035432 0.12806 -0.15738 -0.30393 -0.3647 -0.43997 -0.16293 0.0061229 -0.48171 -0.16739 0.14283 0.17837 0.0030574 0.16656 -0.22141 -0.0040067 -0.44549 -0.026362 -0.19692 0.39178 -0.12334 0.25642 -0.11122 -0.092955 0.033972 -0.20573 -0.17218 0.30321 0.21645 -0.41873 -0.18142 0.20356 -0.12535 0.017036 0.11356 -0.40523 0.15244 0.30549 -0.18238 0.12202 0.093044 0.34072 0.10823 0.31116 -0.29125 0.0071223 -0.06051 0.17958 -0.10609 -0.10446 -0.37077 0.23952 0.36704 -0.11826 -0.31308 0.037539 -0.3878 0.15201 0.23888 0.028542 0.26396 -0.26103 -0.14655 -0.14205 -0.07732 0.23714 -0.039808 -0.19783 -0.23472 -0.043025 -0.34975 0.32751 -0.29606 -0.069346 0.052046 -0.21385 -0.040741 0.36557 0.013211 -0.33778 -0.24077 -0.76451 0.10385 0.33411 0.36454 -0.2087 -0.15919 -0.18627 0.57914 -0.0036461 0.24599 -0.34226 0.14176 0.17905 -0.038133 0.17104 -0.12801 -0.4742 0.0019315 -0.19456 0.1945 -0.14859 0.19368 -0.028716 0.1412 0.32415 -0.02425 -0.024367 -0.12219 0.014334 -0.15259 0.11205 -0.33087 0.69602 0.33161 0.24031 -0.27693 0.14737 -0.092045 0.59918 -0.15652 -0.10637 0.6627 -0.33251 -0.18657 -0.24796 0.44419 0.2499 -0.048426 0.18674 0.17856 -0.17897 0.011475 0.093901 0.073903 -0.42521 0.30817 -0.31528 -0.83676 0.11633 0.77475 -0.21878 0.354 -0.021658 -0.11777 -0.21861 -0.038995 -0.20302 0.10781 -0.040336 -0.18661 0.019497 -0.21946 0.29227 0.14757 -0.22075 0.019114 -0.28098 -0.20713 -0.24794 0.10611 -0.37686 -0.045002 -0.045199 0.321 -0.043414 -0.55339 -0.041021 -0.20906 -0.32378 -0.18261 0.0051314 0.34988 -0.17662 0.023182 -0.246 -0.1106 -0.0678 0.0103 0.45795 -0.36526 0.22638 0.11158 -0.22847 -0.15501 0.17175 0.13267 0.37226 -0.25896 -0.15807 -0.42387 0.19943 0.27792 -0.047055 0.29515 0.065177 -0.25979 -0.63699 -0.36113 0.85123 -0.62134 0.10938 -0.12986 0.10897 0.27863 0.16729 0.15947 0.39503 -0.43484 0.040586 0.40583 0.1237 -0.017312 -0.31273 0.13295 0.2945 0.38507 -0.24144 -0.38486 0.052735 0.29927 0.15241 -0.41392 -0.71528 0.47656 -0.011881 0.25871 0.0074883 -0.20594 0.30889 -0.52908 -0.18919 0.073936 0.043944 0.60524 0.26338 0.19618 0.16775 0.23167 -0.32236 -0.057976 0.53246 -0.63811 -0.30069 -0.4204 -0.014615 0.083607 0.28543 -0.21873 0.18731 0.38117 -0.28803 0.099025 -0.27633 0.04925 -0.23655 0.10295 0.50031 -0.59504 0.15614 0.11472 0.15561 0.22092 0.40399 0.18191 -0.030827 -0.0020306 0.088345 0.094553 0.31314 -0.16848 -0.37438 0.29059 -0.4782 -0.027137 -0.1399 0.16719 -0.13103 0.19485 -0.3146 0.029627 0.032556 -0.24687 0.12321 0.070605 
vật -0.054508 -0.24472 -0.07497 0.2679 -0.36968 -0.024486 0.010651 -0.25304 -0.079946 -0.42507 -0.20598 0.011395 0.49358 -0.35138 -0.048696 0.17491 0.21898 0.15514 -0.50072 0.010892 -0.26681 -0.12865 0.23029 0.1035 0.48811 -0.061502 -0.24225 0.37748 0.44824 0.15136 0.26253 0.20256 0.37096 -0.06504 -0.0051042 -0.068407 0.041049 0.18762 0.059676 -0.43442 0.26226 0.044469 -0.054572 0.46964 -0.26162 -0.28713 -0.17046 -0.11016 0.12402 -0.087758 -0.082051 0.1317 0.11437 -0.4912 0.40028 0.20072 0.055366 0.19422 0.038434 -0.0078987 0.038541 -0.39716 0.064246 -0.31437 -0.40499 0.21764 0.027791 0.27136 -0.69997 -0.32284 0.043741 -0.71676 0.12956 -0.012018 -0.069614 0.16172 -0.12809 0.081852 0.16887 -0.12552 0.19659 -0.31126 -0.20058 -0.19768 0.010871 -0.30344 0.20026 0.0098792 0.19593 -0.07691 -0.51577 0.18726 0.32189 -0.018515 0.26562 -0.44113 -0.15971 0.080918 0.39864 -0.16108 -0.03172 0.02207 -0.011061 0.27799 0.04667 0.2349 -0.24839 0.35205 -0.016158 0.03569 0.25479 -0.16919 -0.1019 0.11826 0.042922 0.43535 -0.15817 -0.3717 -0.17839 0.15981 0.093333 -0.20352 -0.38686 0.16231 0.20993 0.1094 -0.32629 -0.30684 -0.0057523 0.45759 0.11035 -0.27455 -0.11945 0.22788 0.036359 -0.43267 0.34081 -0.22128 -0.23801 -0.35979 -0.19854 0.26262 0.06981 0.4056 -0.059699 0.38594 -0.19849 0.50097 0.47254 -0.19026 0.056362 0.038911 -0.36878 -0.1154 0.088495 0.056374 -0.034559 0.15784 -0.19169 -0.33447 -0.31708 0.021726 -0.062738 0.4573 0.24182 0.59594 -0.080813 -0.26422 0.62554 -0.13571 -0.07595 -0.38992 -0.1476 -0.22643 0.2959 0.08757 -0.12581 0.16876 -0.20426 0.0009732 0.35129 -0.45997 0.38286 -0.34535 -0.40774 0.18304 -0.25109 0.081935 0.080498 0.036192 0.20228 0.11893 0.13589 0.049224 -0.45763 0.14611 0.30905 -0.10626 -0.17163 -0.38134 0.32251 -0.40042 0.0052107 -0.16128 -0.050123 -0.17965 -0.13379 0.10714 -0.24195 0.26324 0.084012 -0.085557 -0.097717 0.10926 0.31464 -0.13306 0.18441 -0.2015 -0.23094 -0.1525 0.16058 0.09336 0.23536 -0.20398 0.10783 0.46607 0.17328 -0.16231 -0.15632 -0.13903 0.40989 0.56911 0.087749 -0.27757 0.5653 0.2287 -0.4833 -0.26869 -0.42011 0.30096 -0.30999 0.13074 -0.032381 -0.55648 0.50985 0.081708 -0.16261 0.41606 0.021454 0.33332 0.15996 -0.3289 0.29907 0.10581 -0.25459 -0.036264 0.075182 -0.28932 -0.079316 -0.18838 -0.24645 -0.14831 0.083638 -0.21739 0.099585 0.2587 -0.46982 0.098714 0.017456 0.23354 -0.016248 0.044326 0.18492 -0.33328 0.094394 0.050121 0.23436 0.036351 0.081671 -0.059365 0.28041 -0.0466 -0.049658 0.10056 0.024741 0.30229 0.12842 0.36507 -0.2451 -0.049531 0.083976 0.11811 0.14856 0.54517 0.17545 0.046417 -0.0028262 -0.35454 -0.21881 0.034261 
thích -0.2682 0.10661 -0.12832 -0.11247 0.019538 -0.088361 -0.030935 0.073771 0.18659 -0.52643 -0.40317 0.05051 0.13135 -0.22266 0.20441 0.23666 0.00067882 0.04894 -0.5337 -0.25005 -0.31337 0.10155 0.15279 -0.26655 -0.27946 0.16053 -0.029295 -0.074251 -0.11227 -0.087621 -0.098747 -0.31491 0.076652 0.18629 -0.0484 -0.078014 0.25169 0.0064463 0.33834 -0.30301 0.15423 -0.3048 -0.15257 0.15471 0.39566 -0.19796 -0.18012 0.37923 0.074252 -0.1814 0.017455 -0.29751 0.31831 -0.42878 0.084114 0.011285 -0.12633 -0.15654 -0.021591 -0.18423 -0.13741 0.11695 -0.043847 0.069147 -0.37858 -0.087061 -0.0018276 0.22491 -0.18498 -0.32115 -0.4285 -0.55166 -0.21105 0.34536 -0.027556 0.10888 -0.089655 0.0462 -0.32054 0.21655 0.24115 -0.051489 0.18448 0.3234 -0.0014983 0.16827 -0.25555 -0.19245 -0.077192 -0.063913 -0.25826 -0.39452 0.15232 -0.02119 0.29192 -0.12169 -0.02359 0.12493 0.55692 -0.20222 -0.1478 -0.33872 0.023287 -0.33215 0.0060927 0.15945 -0.18686 -0.021243 0.18677 0.62481 0.32829 -0.016859 -0.34645 -0.15566 -0.0086356 0.10567 -0.15935 0.23299 0.27662 0.22435 -0.15532 -0.19996 -0.14397 0.27329 0.08094 -0.059554 -0.60779 -0.40454 -0.052684 0.17233 -0.013517 -0.091161 0.098426 -0.29388 0.58865 -0.16544 -0.042699 0.23165 -0.26843 -0.20804 0.24882 0.34702 0.031527 0.18569 0.51228 0.017859 -0.069308 -0.15445 0.22018 0.12745 -0.24902 0.0254 -0.20442 0.23161 -0.37905 0.64498 0.064677 -0.15676 0.24329 -0.090263 -0.15906 -0.099149 0.15884 0.044709 0.085646 -0.22803 -0.014951 -0.24207 0.15452 0.027418 0.52907 -0.26804 0.073339 0.051534 0.12955 0.27445 0.13807 -0.11518 -0.01311 0.094282 0.20608 -0.016639 -0.13196 -0.32411 -0.26103 0.19632 0.11304 0.22193 0.34301 0.47877 -0.24061 0.18464 0.00040267 -0.23799 -0.0014412 0.066431 -0.13834 0.569 -0.21231 0.078632 -0.12682 -0.05687 0.16065 -0.020682 -0.077938 0.34069 -0.046973 -0.12501 -0.2227 0.22028 -0.22851 -0.26077 -0.023316 -0.20137 0.29182 -0.049441 0.093459 0.29452 0.11026 0.12364 0.016484 -0.035637 -0.19157 -0.17661 0.18858 -0.228 0.18648 0.27214 -0.1147 0.2143 0.053845 0.15792 0.23064 0.095127 -0.44315 -0.37615 -0.13635 -0.11386 -0.54745 0.11905 -0.16629 -0.26494 0.11084 -0.52992 -0.13784 0.16557 -0.14583 -0.014986 0.24063 0.12348 0.22863 -0.10453 0.27868 -0.065631 -0.0065618 -0.2305 -0.1982 0.10797 -0.24003 -0.13487 -0.00010182 0.39916 0.0097474 -0.03059 0.27462 0.22972 0.29454 -0.086404 0.1472 0.12508 0.21296 -0.0058202 0.061186 -0.16832 0.18372 -0.040471 0.14624 0.14829 -0.20825 0.25156 0.24124 -0.052172 0.32768 -0.3191 0.25352 -0.23707 0.08115 0.16738 0.06957 0.12423 -0.53531 -0.056502 -0.020456 0.44873 -0.021589 0.056166 0.12678 0.13635 0.012794 -0.3208 
chú 0.032155 0.22729 0.10101 0.40486 -0.040008 -0.25427 -0.42738 0.38612 0.1106 -0.22319 -0.30094 -0.13818 0.32186 0.16476 0.31088 0.023231 -0.17231 0.22935 0.060267 -0.38324 -0.30951 -0.048798 0.22296 0.020601 -0.1982 -0.33556 0.015389 0.60323 0.087038 -0.13631 -0.24533 -0.24846 0.31364 0.16396 0.018493 -0.021504 0.3534 0.1956 0.61948 0.28001 0.1866 -0.027887 -0.35154 0.49095 0.072068 0.12599 -0.37746 0.026456 -0.20511 -0.47445 -0.1222 -0.21203 0.11089 -0.22986 0.55289 0.14455 -0.33917 0.15701 -0.2147 -0.055061 -0.44737 -0.0082727 0.11697 -0.14747 0.47043 0.22609 0.028448 0.057543 0.020294 0.25797 -0.27828 -0.27504 0.20292 -0.02097 0.1651 0.30323 -0.13187 0.084376 -0.45585 0.17018 0.51007 -0.30853 0.19313 0.12487 -0.14137 -0.24499 -0.044122 -0.22186 0.23606 0.12772 0.10912 -0.11138 -0.34431 0.14654 0.0012962 -0.086924 -0.45435 0.16034 0.55604 -0.0042523 0.22573 -0.19992 -0.21266 -0.21602 -0.058549 0.19481 0.078455 -0.1783 0.15697 0.49269 -0.083533 0.33198 -0.078735 0.033544 0.24333 0.173 -0.17931 0.16145 0.302 0.21278 0.15504 0.17101 -0.18425 0.51071 -0.1051 -0.058275 -0.12524 -0.24891 0.22738 0.3213 -0.18629 0.10478 0.30442 -0.31916 -0.081321 -0.10436 -0.40668 0.19785 0.21012 -0.26251 0.20635 0.28862 -0.19856 0.16724 0.46132 0.1168 -0.058628 0.18047 0.6705 0.23597 0.20851 0.2081 -0.23907 0.13135 -0.11192 0.28485 -0.122 -0.023449 0.14059 -0.21847 -0.066986 0.34805 -0.18139 -0.35666 0.047479 -0.19854 0.028204 -0.031622 0.4816 0.27646 0.24382 -0.16387 0.072549 0.8513 0.08705 0.15328 0.13527 0.01274 -0.0095485 0.39245 0.11738 0.061161 -0.29408 -0.037032 0.087482 0.46924 0.094937 -0.085393 -0.043671 0.19573 0.023459 -0.0051019 -0.36631 0.12041 -0.31404 -0.001507 0.1556 0.45994 0.18875 0.10998 0.22353 0.16197 0.24285 -0.058101 0.28939 0.22378 -0.17125 -0.26564 -0.40374 0.033659 -0.50182 -0.27372 -0.18031 -0.13844 0.11726 -0.42385 0.14782 0.39524 -0.35799 0.23738 0.10941 0.13848 -0.0046333 0.029567 0.019139 -0.046812 0.28668 0.50883 0.050558 -0.19238 -0.21262 0.037333 -0.051953 -0.22006 -0.14439 -0.19456 -0.13446 -0.05777 -0.064676 0.14061 -0.12514 -0.03153 -0.22536 0.032644 -0.32636 0.31204 -0.2863 0.17554 0.073234 -0.065188 0.54616 0.19547 -0.16411 -0.053509 -0.053042 -0.011625 0.045298 -0.37498 -0.018536 -0.22684 -0.12771 0.19278 -0.16974 -0.36547 0.15448 0.19324 0.074161 -0.1077 0.1622 0.11291 0.26268 0.13457 0.22311 0.085535 -0.0022534 -0.5037 -0.12314 -0.2913 -0.13507 0.024673 -0.27002 -0.41809 0.18525 -0.22721 0.18622 -0.094774 0.37553 0.20774 -0.21842 -0.16009 -0.30519 -0.40208 0.16699 0.31167 -0.12088 -0.050596 0.27214 0.18456 0.15526 -0.3584 
học -0.031193 0.23455 -0.13288 -0.21256 -0.020096 -0.089672 -0.18899 0.0045462 -0.20137 -0.083139 -0.23898 0.4687 0.2576 -0.064277 0.052562 -0.067363 0.15523 0.31835 -0.52786 -0.13159 -0.52114 -0.36355 -0.13728 -0.3505 0.15059 0.22062 0.20736 -0.011179 0.30927 -0.24227 0.057518 -0.028406 -0.08502 -0.26685 0.34426 -0.49428 -0.042555 0.26157 0.15117 -0.14389 -0.52791 0.051283 -0.096715 0.21719 -0.32636 -0.04242 0.10215 -0.042698 -0.36653 -0.032567 0.094745 -0.21909 0.40051 -0.37397 0.013718 0.066357 -0.064783 0.40996 0.2325 0.12626 0.07132 -0.10502 -0.030313 0.013491 0.041539 -0.014045 0.26351 0.046406 -0.309 -0.25059 -0.18558 -0.016576 0.1386 0.023213 -0.045277 0.051858 0.13532 0.12862 0.1142 -0.33634 -0.021133 -0.31638 -0.17687 0.026458 -0.1108 0.27938 0.14523 -0.49863 -0.19301 -0.075755 -0.46844 -0.14103 0.42815 -0.051864 0.034547 -0.29745 -0.11904 0.4732 0.30247 0.53224 0.079674 -0.20617 -0.11003 0.31644 0.3212 0.39005 0.12959 -0.055242 0.039373 0.1012 -0.052587 0.063768 -0.42261 0.16806 0.17847 0.067194 0.22681 0.040831 -0.34714 -0.11656 0.0033411 -0.26108 0.15534 0.038361 0.090786 -0.14296 -0.20483 -0.61818 0.33205 0.14206 0.14888 -0.4561 -0.096603 -0.40044 0.22734 0.037464 -0.43499 0.32934 -0.17835 -0.13461 -0.25061 0.43633 0.12785 0.095691 -0.1075 0.28596 -0.15356 0.11252 0.14681 0.1382 -0.13771 0.31319 -0.34719 -0.18863 -0.21151 0.39152 0.083346 0.13754 -0.10828 -0.1643 0.0092601 0.11035 0.15302 -0.015919 -0.18997 0.10391 0.26494 -0.47536 0.10752 0.29591 -0.30431 -0.052745 -0.3588 -0.099277 0.0045716 0.1103 -0.0059179 -0.061682 -0.18812 0.27074 -0.20993 -0.05111 0.20859 0.33031 -0.29067 -0.097538 -0.037769 0.1402 -0.019204 0.12606 -0.25708 -0.23297 0.022922 0.12016 -0.18277 -0.00067728 -0.051239 -0.14441 -0.15149 -0.025731 0.17209 0.046755 0.26883 0.11982 -0.39943 -0.33779 -0.062778 0.15624 0.031642 0.3116 -0.086251 -0.0080366 -0.54417 0.083081 0.26063 0.39946 -0.21856 -0.30599 0.2506 -0.19814 0.041472 -0.13561 -0.18796 -0.55392 0.3309 0.45871 -0.016274 0.47509 0.06318 0.26317 0.13165 0.056934 -0.21374 -0.16773 0.021053 0.24772 -0.27475 0.28198 -0.56308 0.37058 -0.15697 0.13477 -0.10878 -0.25371 0.36847 0.034472 -0.17583 0.35736 -0.075307 0.41289 0.33899 0.29199 0.090555 -0.19375 -0.26404 -0.26249 0.12881 -0.43619 0.056597 -0.24443 0.2351 -0.2435 0.36724 0.14698 0.066676 0.27279 -0.0339 0.20183 -0.10319 0.43146 -0.21825 0.22991 0.26262 -0.6439 -0.1083 -0.060964 -0.23887 -0.46293 0.11271 -0.17085 0.38315 0.021486 0.35492 0.20476 -0.091482 0.10316 0.10877 0.32143 -0.29317 0.27082 -0.025656 -0.11273 -0.15033 0.19683 0.10717 -0.3221 0.24903 0.019028 0.10055 -0.40568 
người 0.0489 0.3088 -0.023154 0.21829 0.17118 0.018862 -0.10613 0.0063231 -0.019028 -0.10884 0.062589 -0.17739 -0.18273 0.25401 0.053029 0.16746 -0.040129 0.080389 0.065198 -0.017197 0.091955 -0.14256 -0.021648 0.02206 -0.16509 0.081304 -0.077547 0.061618 0.47343 -0.24047 -0.20188 -0.20347 0.030725 -0.24921 -0.12537 0.18692 0.114 0.25927 0.31414 0.052387 -0.27638 -0.091305 -0.32151 0.16849 -0.023346 -0.10647 -0.14004 -0.19018 -0.04887 0.26029 0.08443 -0.058234 -0.070904 -0.088325 0.36594 0.09368 0.0057016 0.25459 0.19852 -0.082459 0.1694 -0.177 -0.013365 0.22744 -0.30414 0.086748 -0.0082576 -0.055784 -0.0087398 0.097635 -0.21416 0.17632 0.092159 -0.031065 0.043009 -0.19459 -0.16327 -0.074788 -0.23698 -0.070012 0.10691 -0.027714 0.1996 -0.077962 -0.21172 0.06541 -0.10506 -0.37243 0.08357 0.11486 -0.13198 0.20319 0.24288 -0.15615 -0.11707 -0.044009 -0.066114 0.16198 0.31099 -0.020866 0.29797 -0.15566 0.013727 0.1189 0.1719 0.024697 0.00912 -0.071758 -0.072578 -0.10649 0.018785 0.36598 -0.22445 0.011925 0.085972 0.097889 -0.027381 0.42769 0.043581 0.4627 0.014027 -0.069659 0.021451 0.053611 0.15184 0.16196 -0.17392 0.015719 -0.030052 0.61712 0.046343 0.043529 -0.056305 -0.211 0.16985 -0.040138 0.04691 -0.13802 -0.24169 0.041507 0.026603 0.35606 0.015234 0.053973 0.3424 -0.11134 -0.23098 0.24952 -0.20217 0.087132 0.060884 -0.28856 0.029188 0.10791 -0.14911 -0.019128 0.26749 -0.30645 -0.1151 -0.047189 -0.077202 -0.33318 0.036184 0.19366 0.033447 -0.1996 0.090852 -0.15663 0.023298 0.0028501 0.095199 -0.052639 -0.034958 0.1096 0.2787 0.026315 0.29144 0.14189 0.10777 0.092251 0.27918 -0.32201 0.23226 0.13785 -0.20524 0.52119 -0.0036443 0.0096311 0.062355 0.035524 -0.18868 0.0036812 -0.32237 -0.25109 -0.24475 -0.21074 -0.24448 -0.038658 0.035298 -0.061132 -0.0094435 -0.1507 -0.0017519 -0.18646 0.3746 0.28104 -0.038765 -0.21027 -0.21413 -0.14425 0.019545 -0.26261 -0.28196 0.15153 0.23675 -0.20514 0.16734 0.16285 -0.18281 0.03086 -0.1008 -0.056325 -0.013123 -0.0054849 0.015484 0.080105 -0.038927 0.046582 -0.044138 -0.097946 0.29677 0.23817 0.12678 -0.25627 0.15139 -0.092979 0.17332 -0.34439 -0.10067 0.10686 -0.055798 0.14502 0.053113 0.28898 0.19837 0.35779 0.0043976 0.18111 0.10046 0.21165 0.2735 0.070535 0.20864 -0.056646 -0.25917 -0.10824 0.0099945 -0.14793 0.30744 -0.038578 0.0011039 0.2036 0.13647 0.28032 -0.18474 -0.14181 -0.27073 0.17865 -0.10843 -0.17165 0.078398 0.14917 0.20199 -0.15689 0.20628 0.16066 0.20269 0.18486 -0.077276 0.031486 -0.03762 0.13666 0.20828 -0.24226 -0.087014 -0.14415 -0.019621 0.078274 -0.018984 0.029547 -0.0073593 0.02538 -0.16688 0.14015 0.14886 -0.256 -0.1447 0.29544 0.070216 -0.1608 
thực 0.16816 -0.22954 0.025096 0.23998 -0.49838 0.019151 -0.0017835 -0.38534 0.14116 -0.16184 -0.41589 -0.075901 0.26275 -0.44865 -0.12672 0.30318 0.19766 -0.11028 -0.31335 -0.17983 -0.34152 -0.19778 0.26657 0.19283 0.15663 0.12467 0.20943 0.40855 0.35798 0.26358 0.12361 0.048454 0.019135 0.15564 -0.084587 -0.097011 0.065033 0.52856 -0.029504 -0.20542 0.35159 0.04527 -0.27326 0.35047 -0.13937 -0.28986 -0.036624 0.015467 -0.050403 0.037814 -0.03667 -0.11238 0.067242 -0.58652 0.071789 -0.10266 -0.11311 -0.098423 -0.033465 -0.14968 0.092778 -0.35166 -0.063132 -0.25983 -0.16429 0.39027 0.29634 0.14914 -0.36097 -0.11108 -0.13932 -0.68438 0.0056081 0.040494 -0.28181 -0.11332 0.017718 -0.015866 -0.1136 0.21671 0.31824 -0.26939 0.002781 -0.30771 0.08079 -0.4384 0.12379 0.023393 0.11142 -0.14503 -0.45435 0.14021 0.20224 -0.20994 0.2704 -0.55674 -0.13049 -0.061168 0.18619 -0.44058 -0.0698 0.083425 -0.048461 0.29004 -0.15281 0.208 -0.30099 0.21105 -0.22476 -0.086364 -0.0031259 -0.052856 0.16146 0.2956 0.026347 0.21274 -0.18075 -0.4215 -0.0985 0.25689 0.14867 -0.24102 -0.37943 -0.15795 -0.058949 0.16393 0.039148 -0.42071 0.040026 0.20128 0.027577 -0.086018 -0.14226 0.11326 0.092686 -0.45632 0.056559 -0.12399 -0.17285 -0.18411 -0.098087 0.21412 0.04988 0.068044 -0.066763 0.36862 -0.013459 0.46728 0.20622 -0.33054 -0.20443 0.062818 -0.15835 -0.18147 0.029012 0.074747 0.14115 -0.082042 0.1016 -0.1139 0.090555 0.06963 -0.0045428 0.16263 0.21788 0.33059 -0.059252 -0.39561 0.28784 0.084892 -0.073858 -0.14636 -0.01516 -0.27213 0.1441 -0.059393 -0.34663 -0.20155 -0.2341 -0.10279 0.4515 -0.54246 0.13557 -0.2733 -0.26817 0.23387 0.11461 0.23465 0.17507 -0.10956 0.10358 0.1573 0.098968 0.045803 -0.12337 -0.027726 0.22422 -0.17111 -0.49792 -0.24937 0.30048 -0.38768 -0.042816 -0.21024 -0.25485 0.026577 0.050958 0.28096 -0.14705 0.15755 0.051223 -0.03919 -0.29323 0.17143 -0.15921 -0.18981 0.44566 -0.053892 -0.1881 0.071236 0.059179 -0.078281 0.21071 -0.33553 0.17551 0.28486 0.37519 0.15642 -0.039222 -0.24045 0.26676 0.28969 -0.03567 -0.0033465 0.36132 0.20939 -0.31721 -0.24299 -0.4165 0.38722 -0.26067 0.20416 -0.067464 -0.52 0.40151 0.30405 -0.35894 0.36706 0.31147 0.43708 0.26331 -0.028944 0.39375 0.18734 -0.39274 -0.11119 0.26512 -0.35833 -0.068031 -0.17933 -0.49256 -0.25447 0.19588 -0.30244 -0.074527 0.41955 -0.25346 0.26785 -0.063309 0.11586 -0.23585 0.1527 0.17692 -0.47473 -0.032013 -0.15118 0.094274 -0.17304 0.19733 -0.2763 0.28419 -0.14064 -0.1689 0.018534 0.11824 0.10629 0.03013 0.30925 -0.25994 -0.034704 0.11651 -0.040387 -0.12345 0.22143 -0.00095548 -0.27887 0.082721 -0.40184 -0.21603 0.10774 
liên -0.076984 -0.21422 -0.43843 0.096726 0.013105 0.020159 0.25531 -0.20031 -0.12829 -0.36923 0.031108 -0.39856 0.2096 0.19051 0.21949 -0.0074866 -0.024304 0.089636 -0.24742 -0.10039 -0.12125 -0.34694 -0.064878 0.087841 0.25758 0.086057 -0.061607 0.34385 0.26791 -0.00090664 -0.14779 0.14455 -0.13165 -0.33029 -0.20604 0.013768 -0.01664 -0.015722 0.37332 -0.19983 -0.41136 0.28007 -0.35087 0.32606 -0.030109 0.14709 -0.034146 -0.12979 0.054306 -0.077935 0.031745 -0.36604 0.19257 -0.25411 0.062123 0.062641 -0.16991 -0.25408 0.25296 -0.2713 0.095886 -0.42916 0.34896 0.47543 -0.31315 0.3052 -0.048125 -0.36295 -0.17576 -0.12062 -0.58982 -0.0078207 0.26201 -0.21622 -0.24007 -0.32025 -0.087682 0.2952 -0.38271 0.019449 0.1413 -0.54903 0.21752 -0.17376 0.054773 0.14911 0.10479 -0.4119 0.072352 -0.094362 0.093561 0.17649 0.028881 0.38096 -0.0958 -0.081464 0.12057 0.055215 0.22557 0.048506 0.28371 -0.24108 0.077037 -0.076891 -0.083097 0.047924 -0.011882 -0.065958 -0.075916 0.25401 -0.17955 0.023132 -0.035779 0.32438 -0.028524 0.12648 0.14877 0.057123 0.014229 0.29202 0.79565 -0.13895 0.36819 -0.36165 -0.060232 0.022002 -0.16001 -0.52006 -0.26502 -0.3094 -0.17339 -0.062951 0.1623 -0.12929 0.26212 0.029909 -0.37228 0.24252 0.026617 0.20391 0.26848 0.13053 0.19891 0.27826 0.27859 0.0042735 0.075925 -0.10205 0.028133 -0.075374 -0.061039 -0.30387 -0.12747 -0.2381 0.13294 0.30368 0.30785 -0.28153 -0.18398 0.19817 0.073436 0.12556 -0.14812 -0.27159 -0.16647 -0.26342 0.36933 0.0057891 -0.068442 0.22244 0.15832 -0.11616 -0.14239 0.19273 -0.20729 0.0088252 0.0022255 -0.18037 -0.060322 0.053906 0.44139 -0.13982 0.2089 0.092558 0.037657 -0.081648 0.19674 0.40677 -0.11677 0.10804 -0.19172 0.060479 0.053541 0.021861 -0.10602 0.18844 -0.10435 0.36256 0.25356 -0.34932 -0.17955 0.42651 0.087766 -0.12317 -0.048651 0.070844 -0.08819 0.16633 -0.012415 -0.11358 0.071194 -0.098564 0.26094 -0.10817 -0.018699 -0.30859 0.25835 0.056708 -0.39777 0.06011 0.11163 0.060619 -0.32116 0.1308 0.39548 -0.072597 0.0080691 0.20936 -0.10826 -0.32771 -0.29669 0.44266 -0.10122 0.1393 0.12306 0.10105 -0.25543 -0.033547 -0.03339 -0.2767 0.27154 0.19423 -0.26563 0.40963 0.10985 0.53549 0.26864 0.19448 0.36567 0.47192 0.4098 0.13177 -0.35117 -0.17814 -0.36498 -0.22094 -0.11282 0.043644 -0.14179 -0.23781 -0.18742 0.085282 0.37525 -0.2194 0.4472 0.3336 0.0012907 0.13044 -0.09079 -0.17981 -0.43173 -0.072447 0.33767 0.19328 0.039105 0.19184 -0.021824 -0.19843 0.23954 0.042433 -0.17258 0.15116 0.03279 -0.17798 0.1134 -0.31709 0.06356 0.23001 0.048796 -0.05307 0.10223 -0.17267 0.072877 0.2853 0.38567 0.017361 -0.23415 -0.071119 -0.016962 -0.038598 
tham 0.044166 -0.16294 0.025027 -0.074869 -0.39421 0.057041 -0.21481 0.11661 -0.093469 -0.35561 -0.062955 -0.17279 0.01811 0.13076 0.1487 -0.24022 -0.1652 0.3022 -0.48005 0.099318 -0.20429 -0.18547 -0.0054326 0.27423 0.099393 0.2725 -0.070756 0.33236 0.61763 0.085893 0.095889 -0.18385 -0.1328 0.25799 0.0041274 -0.090131 -0.10204 -0.021836 0.30648 -0.28386 0.03899 -0.026746 -0.34971 0.46826 0.0071436 0.077268 -0.071901 0.019807 0.20122 -0.26749 0.19821 -0.4121 0.10148 -0.11835 0.25997 0.13035 -0.43976 -0.14833 -0.26576 -0.39302 0.20513 -0.14078 0.16128 0.13334 -0.27897 -0.079141 0.020254 0.24114 0.038901 0.41118 -0.05914 0.31018 -0.057253 0.0045343 0.13861 0.25295 0.071726 -0.01246 -0.24372 0.17337 0.19964 -0.19675 -0.22774 0.14699 -0.0071856 -0.047443 -0.035486 -0.08238 -0.14115 0.052456 0.033353 0.13635 -0.049286 -0.068995 -0.13098 -0.17848 -0.024111 -0.23419 0.28199 0.11932 0.32505 -0.061285 -0.20893 -0.42384 0.13018 0.16347 -0.12827 0.14255 -0.33669 0.27283 -0.074506 0.11783 -0.10872 -0.024306 -0.078836 0.090378 -0.21105 0.62102 0.14273 -0.074287 0.21751 0.076071 -0.041625 0.14871 0.16374 0.045505 0.013234 -0.82085 0.14529 0.28043 0.20745 0.11527 0.21289 -0.20198 0.45518 -0.072785 -0.27823 0.024255 -0.15587 -0.062377 -0.0049032 0.46563 0.075319 0.22373 0.39492 0.016865 -0.21655 -0.24135 -0.12221 0.026322 0.13446 -0.041273 0.097731 -0.0242 0.059331 0.16542 0.19294 -0.15486 0.16998 -0.017277 0.050726 -0.013365 -0.10912 0.080858 -0.30666 0.10784 0.041257 -0.015302 -0.12344 -0.24546 0.021675 -0.19218 0.43559 0.18381 0.06086 0.11372 -0.37625 0.13973 0.0022693 0.44798 0.053826 -0.21589 0.36896 0.32614 -0.41086 0.20649 0.097114 -0.068928 0.12552 -0.10602 -0.25701 0.13996 -0.16623 -0.10753 -0.02491 -0.24718 0.055689 0.12401 -0.0768 -0.44825 0.13231 0.1258 -0.2368 0.056156 0.062688 0.3871 0.16769 0.31833 -0.1627 0.18911 -0.0096158 -0.097597 -0.028795 -0.49917 0.23297 -0.09845 0.048464 0.33578 -0.43271 -0.23275 -0.036569 -0.083863 0.12909 0.086335 0.22561 -0.067524 0.2444 0.27661 0.26389 -0.17712 0.40714 0.414 0.061899 -0.037791 -0.11627 0.0061972 -0.12882 0.013786 -0.1443 0.075077 -0.15838 -0.14961 -0.074065 -0.15291 0.24137 0.04631 0.080771 -0.056045 0.61596 0.25761 0.13861 0.44049 -0.10959 -0.031515 -0.29582 0.1995 -0.24184 -0.033916 -0.33199 -0.03557 0.10755 0.11449 0.1779 -0.26632 0.062733 0.16142 0.24152 0.1252 -0.1908 0.055296 0.26429 -0.029498 0.036375 -0.033273 0.010537 -0.24202 -0.0035362 -0.35395 0.55338 0.043609 -0.073495 0.14029 0.2157 -0.085818 0.11726 -0.24231 -0.014376 0.26573 -0.27439 0.13478 0.20609 -0.16212 0.033173 0.20418 0.11541 -0.10194 0.27477 0.1714 0.1014 0.18359 
kết 0.12223 -0.21028 -0.037737 0.14223 0.3523 -0.20552 -0.13248 -0.264 -0.13232 -0.51223 0.025572 -0.36287 -0.0030986 0.09208 0.30964 -0.19476 -0.035125 0.18719 -0.18523 0.065885 -0.56577 -0.3 -0.12801 0.085802 0.12513 0.28818 -0.088474 0.17525 0.17103 0.0068593 -0.059405 0.14113 0.32012 -0.55915 -0.24497 0.19611 0.17126 -0.07704 0.15843 -0.14856 -0.30874 0.24567 -0.31312 0.16727 -0.14673 -0.11978 -0.051019 -0.047377 0.17644 -0.13382 0.16484 -0.31646 0.29678 -0.3196 0.065051 0.11756 -0.24449 -0.30834 0.1975 0.059955 0.12057 -0.044664 0.20531 0.18454 -0.032266 0.2495 -0.21532 0.026882 -0.3639 -0.32241 -0.41859 -0.039778 -0.065395 -0.05258 -0.16908 -0.13912 0.17805 0.33881 -0.065508 -0.0017024 0.29672 -0.073706 -0.12072 0.010842 0.07893 0.25769 0.19266 -0.35158 0.067406 0.1545 -0.0096796 0.41654 -0.19402 -0.26447 -0.18879 -0.19725 0.078847 0.079616 0.44075 -0.3376 0.27378 -0.23098 0.1632 0.16492 -0.37915 0.060747 -0.31328 -0.32482 -0.45078 0.26324 -0.04458 -0.18517 0.17874 0.221 0.14981 -0.13261 -0.099546 0.35652 0.19636 0.18508 0.29772 -0.018184 -0.10721 -0.14338 -0.21062 -0.1923 -0.27962 -0.37956 -0.22256 0.0036783 -0.19581 -0.10978 0.39314 -0.071818 0.47131 0.12367 -0.20455 0.36153 0.3812 0.23874 0.20618 0.20813 -0.059586 0.25521 0.1216 0.021113 0.024183 -0.10995 0.070025 0.16408 0.094872 -0.2322 -0.041709 0.17774 0.077183 0.046146 0.25902 0.004567 -0.046535 -0.1354 -0.03162 -0.19272 -0.11707 -0.24409 -0.077074 0.03776 0.44692 0.13452 -0.065594 0.20229 0.26259 -0.26602 0.051797 0.38798 -0.25662 -0.16681 -0.10377 0.028189 -0.22831 0.17568 0.11911 0.050591 0.076851 -0.3512 0.14288 0.20385 0.17766 0.46543 -0.21652 0.032089 -0.38462 0.15473 -0.054965 -0.017935 -0.22429 0.01218 -0.34158 0.27997 -0.3095 -0.54343 -0.27405 0.32517 0.074903 -0.55038 -0.19538 0.11012 -0.064751 0.33318 0.036646 0.025759 0.18611 -0.015455 0.16565 0.025078 0.28445 -0.41437 0.36751 0.40688 -0.30688 0.064612 0.18855 0.038496 -0.24383 0.16735 0.28842 0.14601 0.013319 0.38945 -0.35946 -0.19875 -0.11631 0.59682 0.21285 0.21126 -0.018077 0.20808 -0.13164 0.29734 -0.096711 -0.0098494 0.0069075 0.10598 -0.14366 0.060072 0.11636 0.23177 0.057371 0.16275 0.19333 0.10394 0.45548 0.27189 -0.15133 -0.0096155 -0.31271 -0.22574 -0.10093 0.039106 -0.10557 -0.07413 0.055828 0.213 0.10569 0.10388 0.42557 -0.056898 0.28749 0.15082 -0.37103 -0.30602 -0.077642 0.094237 -0.20617 -0.020997 -0.089596 0.1621 -0.020776 0.16323 0.30238 0.15402 -0.17836 0.22598 0.52195 -0.30217 0.039439 -0.31543 -0.089071 0.12109 0.081079 0.021805 0.14747 -0.14548 0.05101 -0.08179 0.10969 -0.16608 -0.14936 0.28731 -0.083251 -0.23622 
ở 0.050426 0.066526 0.059262 0.22012 0.080412 -0.0086537 0.031617 -0.069086 0.14356 -0.12056 0.21569 0.053077 0.2301 -0.051962 -0.048132 -0.079413 -0.082751 0.094119 -0.066711 -0.088492 -0.17121 0.10484 0.21712 -0.17937 0.18223 -0.14989 0.2771 0.074089 0.17042 -0.18997 0.080343 0.14598 0.11623 -0.026115 -0.2648 0.21831 0.18243 -0.16976 -0.007843 -0.34969 0.028512 0.048521 -0.13564 0.091895 -0.14477 -0.2382 -0.14721 0.027715 0.27163 0.25035 0.024608 -0.073229 0.26367 -0.3115 -0.12597 0.016202 0.12765 -0.044519 0.24643 -0.086384 -0.10224 -0.21936 -0.24366 0.15307 -0.24991 0.46496 0.083835 0.052017 0.21238 -0.20312 -0.18984 0.13411 0.12235 -0.21518 -0.070697 0.05757 -0.091424 0.16565 0.14611 -0.15943 0.0075613 0.026066 -0.19677 -0.012586 -0.14784 0.043588 -0.042518 -0.28376 0.069867 -0.097125 0.12854 0.30217 -0.17318 0.055194 -0.16673 0.08342 -0.45454 0.11396 -0.010049 -0.046581 0.30735 -0.25272 -0.059699 0.27866 0.2537 0.20472 0.054698 -0.11906 -0.32805 -0.16876 0.1358 0.28582 -0.12156 0.069449 0.29089 0.024031 -0.12176 0.34652 0.21885 -0.15196 0.25703 0.065157 0.049104 -0.0038089 0.15655 -0.065785 -0.23613 0.13364 0.10059 0.17187 -0.41606 0.27752 -0.052481 -0.33378 0.0065722 0.039894 0.10317 0.12624 -0.14217 -0.02215 -0.20323 0.27717 -0.034045 0.12153 0.3366 0.15483 -0.13115 0.14448 -0.057931 -0.15796 -0.033666 -0.19086 -0.19256 0.16935 -0.23021 0.19884 0.19217 0.0548 -0.086729 0.029397 -0.19848 -0.034418 -0.17078 0.1944 -0.0795 0.070622 0.10303 0.19723 0.03976 0.028479 0.16586 0.46517 0.097378 0.28612 -0.039778 -0.092591 -0.020826 -0.012144 0.24416 0.0073998 -0.13683 0.030012 0.12583 -0.10318 -0.15606 -0.10776 -0.021525 0.14775 -0.015 -0.061994 -0.18656 0.13131 -0.34312 -0.10435 -0.14425 -0.074683 0.10838 0.2007 -0.046129 -0.0023007 0.08075 0.10755 0.18923 -0.034943 0.2468 0.078258 -0.12655 -0.15333 -0.15381 0.091045 0.12596 -0.15453 -0.1657 0.17937 0.15822 0.17796 0.14705 0.32736 -0.22413 -0.10509 -0.27398 0.096149 -0.094401 0.068762 0.036232 0.24521 0.041045 0.17707 0.18455 0.037291 0.16667 0.19843 0.0092376 -0.21341 -0.024308 -0.0024657 0.068745 -0.16459 -0.31523 -0.11972 0.14944 -0.12711 0.18395 -0.029765 0.051399 0.06761 -0.28278 0.2576 0.20919 0.022633 0.14092 0.14944 -0.037234 -0.18139 -0.11421 -0.042934 -0.00059551 -0.032078 -0.0090875 0.04002 0.14308 0.30523 0.29039 -0.12564 0.41539 0.053253 -0.07739 0.34812 0.083607 -0.17184 -0.1627 0.012184 0.21872 -0.27434 0.12093 -0.029588 0.09775 -0.41456 0.20647 0.27304 -0.058966 0.076715 0.12535 -0.32775 0.15349 0.12592 -0.24317 -0.035222 0.1803 -0.10152 0.072382 -0.13842 0.1159 0.24154 0.33492 -0.18546 0.17889 0.077346 -0.35408 -0.046652 
khảo 0.043542 -0.015938 0.29504 0.28881 0.20082 0.50691 -0.444 0.7002 -0.54685 -0.17226 -0.13829 0.045976 -0.071987 -0.12212 -0.073689 -0.1596 -0.15921 -0.0079743 -0.55539 -0.30405 0.27043 0.25812 0.34537 -0.3732 0.092117 -0.14214 0.020513 0.20771 0.15918 0.26513 -0.17727 -0.10222 -0.036013 0.093497 -0.25572 -0.13176 0.83316 0.46102 0.69362 0.24242 0.26195 -0.30543 -0.5549 0.51832 -0.71806 -0.40101 -0.26343 -0.13179 -0.25836 0.14184 -0.59806 -0.19296 0.23886 -0.24586 0.38625 0.3362 -0.023916 -0.069631 -0.20204 -0.18338 0.24069 0.030898 0.043418 0.10976 -0.37359 0.5328 0.31836 0.53813 -0.23084 -0.015483 -0.17451 0.43159 -0.28558 0.16866 -0.15203 0.22167 -0.10918 -0.16468 -0.45301 0.38734 0.19714 -0.15693 -0.037251 -0.017564 0.54722 0.016619 0.050466 -0.06033 0.30417 -0.074784 0.060752 -0.017504 -0.18445 -0.067516 0.012907 -0.28783 -0.14339 -0.13943 0.20205 0.24692 0.33457 0.049597 -0.22858 -0.24851 0.21454 0.11037 -0.070289 -0.41274 0.15083 0.51636 -0.57664 0.16498 -0.42426 0.28112 -0.081151 -0.27716 0.22344 0.33348 0.67273 0.22728 -0.27826 -0.30499 0.034939 0.15988 0.26523 -0.17628 -0.16791 -0.59371 -0.10922 0.79669 0.3664 -0.25603 -0.28326 -0.28805 0.20062 -0.20626 -0.25828 0.18669 -0.23439 0.041017 -0.30722 0.1844 -0.060388 -0.40558 -0.11369 -0.42486 -0.56501 0.20989 0.33791 0.10122 0.0081845 0.00077786 -0.00086452 0.043626 -0.014545 0.11508 -0.12896 -0.33647 -0.078249 -0.43885 -0.14024 0.38483 -0.20374 -0.286 -0.17859 -0.21647 0.13943 0.2339 0.10519 0.11639 0.17878 0.043449 0.063897 0.15615 -0.6302 0.38774 0.035311 0.26754 -0.408 0.49965 -0.1057 -0.061078 0.48264 -0.0078066 0.16663 0.15707 0.25019 0.10023 -0.012749 0.20428 -0.2894 -0.13884 -0.25157 -0.17664 -0.14645 -0.30495 -0.17962 0.44002 -0.0098217 -0.25619 0.27043 -0.33 0.34288 -0.31347 -0.090938 0.070708 -0.028476 -0.16245 -0.53306 0.12391 -0.41706 -0.47547 0.032273 -0.30217 -0.14995 -0.27804 0.012247 0.51508 -0.31873 -0.069908 -0.19626 0.078689 0.008629 -0.061041 0.5338 0.75054 0.57163 0.36277 0.4066 -0.59641 0.037522 0.55761 -0.20902 0.14246 0.14473 -0.14968 -0.23599 0.05813 -0.065049 -0.05117 -0.034545 -0.025894 -0.25453 0.063351 -0.19809 0.10527 -0.17048 -0.16586 0.19366 0.1024 0.28738 0.28339 0.018555 0.29823 -0.044303 -0.040744 -0.056491 -0.56365 -0.09935 -0.048602 0.13221 0.14393 0.11958 0.12291 0.25786 0.39871 -0.22735 0.14314 -0.069929 0.57432 0.16087 -0.16982 -0.041293 -0.26812 0.20738 0.22838 0.32742 -0.31653 0.32178 0.043324 -0.57859 0.020637 0.38314 -0.1043 -0.14835 0.043425 0.27285 0.2873 0.04102 0.67697 0.02371 -0.2307 0.030828 -0.067836 0.052308 -0.040783 0.70746 0.052154 -0.0098891 0.20197 
mô -0.22304 -0.16211 -0.12286 -0.37729 -0.21058 -0.091338 -0.24808 0.010757 0.13263 0.056789 -0.056954 -0.34163 0.33927 -0.13714 -0.31094 -0.19509 -0.082109 0.18257 -0.3382 -0.55638 -0.62169 -0.51521 -0.20101 -0.32416 -0.39732 0.18725 0.058907 -0.13765 0.28885 -0.31224 0.040589 -0.058358 -0.2577 0.016441 0.29744 -0.32657 -0.025196 0.0056652 0.12724 0.11643 -0.25896 0.21127 0.154 0.15261 -0.076147 -0.31103 0.14419 0.21503 0.017513 -0.089098 -0.18873 0.22263 0.51714 -0.018542 0.14475 -0.022424 0.34192 0.12902 0.29696 -0.045983 0.090786 -0.29846 0.051913 0.02231 -0.25417 -0.19257 0.322 0.55573 -0.14133 -0.30694 -0.22872 -0.37891 0.25455 0.20418 -0.18819 0.36504 -0.20228 -0.0015555 -0.032756 -0.18113 0.056709 -0.10716 -0.021997 -0.29544 -0.070123 -0.20469 0.011339 -0.31823 0.078783 0.05285 -0.63274 0.13287 0.23114 -0.031871 -0.054633 -0.026931 -0.3601 0.40364 0.16792 0.18798 0.1917 0.0032122 -0.10702 0.59455 -0.2217 0.13168 -0.69873 0.11804 0.071344 -0.11526 -0.11068 0.0028954 -0.32512 0.33454 -0.10578 0.15816 0.021628 -0.12192 -0.015126 0.028458 0.077977 -0.21809 -0.10463 -0.024176 -0.15288 -0.091306 -0.056786 -0.37519 0.80478 0.29694 0.10866 -0.37915 0.31777 0.063829 0.77131 -0.42409 -0.063369 0.13275 -0.17467 -0.16377 0.10434 0.27494 0.40225 0.093971 -0.02433 0.1128 -0.24467 0.062124 0.29477 -0.040284 -0.037398 0.44716 -0.33247 -0.44178 0.35412 0.88896 -0.19959 0.29063 0.057271 0.091389 -0.24388 0.48743 -0.098342 0.32396 -0.18776 0.14916 -0.045267 -0.32286 0.56668 0.17694 -0.19787 -0.48683 -0.067755 -0.19017 0.16261 0.092729 -0.32407 0.18477 -0.069964 0.59784 0.11044 -0.48305 -0.11491 -0.22491 -0.68191 0.14431 0.031712 0.38761 0.12856 0.10189 -0.079816 -0.17554 -0.16893 0.35647 0.12052 -0.11822 0.38863 0.269 -0.31773 -0.43037 0.15616 0.05538 0.15711 -0.21051 0.075485 -0.15471 0.1147 0.59604 -0.062054 0.1483 0.14233 -0.36576 -0.58686 -0.087609 0.44736 -0.47987 0.27687 -0.24604 0.34802 0.1518 -0.10874 0.46353 0.12746 -0.44172 0.78641 0.54027 0.028468 -0.04153 0.083219 0.054026 0.074527 0.2649 0.17015 -0.42264 0.30632 0.38577 -0.13298 -0.59218 -0.73553 0.36221 -0.041107 0.16118 -0.21914 -0.26589 0.12792 -0.49383 -0.038287 0.072662 0.11827 0.42067 0.34118 0.080082 -0.10592 0.052749 0.043457 -0.35462 0.46913 -0.68104 0.029119 -0.15944 -0.17005 -0.10769 0.12597 0.093173 -0.14228 0.48142 -0.064363 -0.06235 -0.25951 0.04198 0.10614 0.31018 0.25979 -0.74769 0.13419 0.0452 0.050596 0.079527 0.0083911 -0.10773 0.13063 0.1932 0.068963 0.3411 0.52987 0.063331 0.045617 0.22481 -0.26881 -0.10398 -0.031028 0.008047 -0.09515 0.22182 -0.19806 0.070165 0.0049945 -0.19112 -0.077276 0.26256 
đầu -0.077554 0.33662 -0.027988 -0.053675 0.095229 -0.032986 -0.38562 -0.19971 -0.2038 0.11244 -0.23766 -0.14382 0.085474 -0.17572 -0.15761 0.26939 -0.12145 0.039167 -0.17961 -0.12619 -0.55251 0.063236 0.059195 -0.15961 -0.25671 -0.019643 0.16411 0.22987 0.28761 -0.043314 -0.16591 -0.20334 -0.23917 -0.093354 0.12702 -0.10863 -0.086074 0.052281 -0.15587 -0.051159 -0.35781 0.033422 -0.044087 0.13873 0.077745 -0.049431 0.183 0.056316 7.7209e-05 -0.045364 -0.035736 0.028971 0.18018 0.026944 0.21719 -0.082894 -0.19114 -0.019797 0.086838 -0.099587 -0.0094645 -0.12501 0.094844 0.081155 -0.19116 0.030858 0.29276 0.29156 -0.10675 -0.068472 -0.30797 -0.52342 0.034799 0.14014 -0.092999 0.013677 -0.053182 -0.034752 -0.050958 -0.2643 0.33183 -0.20905 0.022513 -0.26957 -0.15927 0.078177 -0.012244 -0.13784 0.13919 0.01901 -0.22852 0.19309 0.085757 -0.043562 -0.20796 -0.39177 -0.091898 -0.00029839 0.15279 0.033071 0.21024 0.067274 -0.15428 0.19887 -0.1909 0.25495 -0.013689 0.016561 -0.17045 -0.046295 -0.019129 0.30273 -0.31031 0.23763 -0.078016 0.038701 0.22108 0.059818 -0.20401 -0.18312 0.39039 -0.23788 0.035378 -0.13593 -0.0055372 -0.029995 0.091431 -0.30281 0.21222 0.21926 -0.12149 -0.43536 0.13947 -0.01103 0.44007 -0.34821 -0.35649 -0.051562 -0.027883 -0.16052 -0.16342 -0.061773 0.41061 0.18773 0.015778 0.21936 -0.23969 0.0086422 -0.19834 -0.1038 -0.00029036 0.083692 -0.1765 -0.15366 0.092445 0.53153 -0.14394 0.088418 -0.01363 0.18678 -0.1824 0.33019 0.072734 -0.25027 -0.01958 -0.1805 0.040134 -0.34196 0.27677 0.0049424 -0.099603 0.18103 -0.12658 0.30198 0.026468 -0.11666 0.058351 -0.13699 0.022311 0.50136 0.20799 -0.064232 0.17326 0.10831 -0.39414 0.15068 -0.17015 0.27774 0.04177 -0.0067889 -0.15897 -0.010242 -0.075738 -0.083588 -0.15374 -0.25429 0.041789 -0.087281 -0.18332 -0.24316 0.030881 -0.13434 0.10018 -0.071018 -0.15895 0.063978 0.0015592 0.11846 -0.15717 0.31775 0.12523 -0.2131 -0.39583 0.11766 0.32046 -0.091003 0.095803 0.099848 -0.27442 0.067079 0.031582 0.16304 -0.15894 -0.3076 0.33718 0.46698 0.015253 0.17465 0.075493 0.16308 -0.015954 0.16791 0.067605 -0.06907 0.26068 -0.12052 0.14835 -0.018331 -0.50568 0.43791 -0.024323 -0.26247 -0.16212 -0.3185 0.16438 -0.047909 -0.33193 0.39033 0.011927 0.21845 0.11717 0.27419 0.13855 0.41551 -0.12309 0.12534 -0.0015271 -0.19872 0.014441 -0.2515 -0.16312 -0.15116 0.23332 0.067452 0.042763 0.11093 -0.084825 0.26174 -0.21633 0.25459 -0.16333 0.21421 -0.052923 -0.26106 -0.11774 -0.061537 -0.17338 -0.23523 -0.044872 0.14957 0.22183 -0.23608 0.02419 0.013856 0.032711 0.020483 -0.019106 -0.063222 -0.37152 0.10519 0.28803 -0.1432 -0.063614 0.091606 0.058953 -0.32971 0.00091333 0.017777 -0.034709 0.16415 
ngoài -0.27095 -0.068661 -0.13595 0.32641 0.015699 0.05272 0.21398 0.17621 -0.16344 -0.31929 0.12899 -0.49463 0.083943 0.17813 0.05837 -0.10086 -0.24563 0.18578 -0.085526 -0.016237 -0.13311 -0.46602 0.27948 -0.36113 0.27406 0.29939 -0.27249 0.073694 0.06587 0.16706 -0.35287 -0.045072 -0.14767 -0.30811 0.02095 0.40379 0.31031 0.041994 0.37606 -0.11892 -0.15885 0.18155 -0.18494 0.18182 -0.33831 -0.1973 -0.11374 0.35718 -0.23075 0.14869 0.18779 -0.27225 0.0051151 -0.1079 0.10984 0.27422 -0.076455 -0.36392 -0.04114 -0.097692 -0.17519 -0.28418 0.071055 0.25133 -0.17405 0.36734 -0.18432 0.19089 -0.3178 -0.21193 -0.32016 0.066522 0.32481 0.01031 -0.24391 -0.35283 0.23289 0.16548 -0.17862 0.046439 0.26018 -0.13293 -0.071494 -0.10053 0.21806 0.46749 -0.028022 -0.5213 0.34356 0.31683 -0.23052 0.30154 -0.38611 0.2404 -0.071402 0.048903 -0.16492 -0.25929 0.25312 0.020801 0.28488 -0.0063565 0.17504 -0.22507 -0.27295 0.15005 -0.40665 -0.53278 -0.1167 0.27323 -0.32122 -0.099147 0.068173 0.077094 -0.21579 0.19315 -0.14866 0.1799 0.0085598 0.072395 0.30453 -0.00047166 0.50155 -0.28686 0.062446 -0.088906 -0.32097 -0.1867 -0.063571 0.27516 -0.28698 0.029847 0.12287 -0.28798 0.32491 0.15238 -0.048095 0.34978 0.065575 0.0052634 0.016395 0.0089101 0.016644 0.24559 0.19166 -0.10019 0.040584 0.18006 0.17968 -0.15561 0.058638 -0.15293 -0.26146 0.058699 0.39737 0.49699 0.080177 -0.032605 0.11201 0.10254 0.31173 -0.19428 -0.10033 -0.31941 -0.037632 -0.074264 -0.12442 0.1719 -0.15462 0.078427 0.31654 -0.0093915 -0.30648 0.079655 0.0086055 -0.1025 0.028751 0.041847 -0.37056 0.18674 0.20967 0.27998 0.15349 0.11334 -0.25898 0.054337 0.31091 0.13583 0.034405 0.018273 -0.24451 -0.23267 -0.1001 -0.07989 -0.031256 0.18113 -0.22855 0.43343 -0.13236 -0.49597 -0.14481 0.076325 -0.10108 -0.38744 0.10718 0.046562 -0.36475 0.065796 -0.13412 0.23944 0.037863 -0.11249 -0.0081433 -0.112 0.30562 -0.15365 0.22985 0.3848 -0.10203 -0.16561 -0.044094 -0.037261 -0.61029 -0.087533 -0.096314 0.091382 -0.0058863 0.18112 -0.34537 -0.20796 -0.235 0.55616 -0.015014 0.060917 0.30565 -0.21269 0.061156 -0.28537 -0.17137 -0.041937 -0.0027281 0.11047 -0.22268 -0.10339 -0.12836 0.35692 -0.22324 0.31231 0.05658 0.22469 0.15194 0.19258 -0.30385 -0.17592 -0.16865 0.035237 0.11763 0.32921 -0.043103 0.017224 0.051746 0.099497 0.0053068 0.15082 0.5139 0.020311 0.30242 0.17357 -0.23063 -0.1482 -0.087555 0.066921 -0.17498 -0.22667 -0.14653 0.14134 0.13486 -0.1117 0.024271 -0.14051 0.19011 0.17648 -0.19326 -0.14034 0.086642 0.0017395 -0.28392 -0.021447 -0.13869 -0.05332 0.16609 0.13199 0.19195 0.57652 0.55639 -0.069995 0.27059 -0.1365 -0.18694 -0.20591 
thành -0.0019831 -0.20106 0.14637 0.18064 0.057642 0.037476 0.25119 -0.10138 0.12542 -0.24102 -0.1026 -0.070209 0.10816 -0.11721 0.33993 0.037425 -0.15592 0.24046 -0.10107 -0.16182 -0.068974 -0.041253 0.019461 -0.10567 -0.0077636 0.23916 0.17508 0.011188 0.31165 -0.025899 -0.064792 -0.12564 -0.14704 -0.54881 0.031066 0.11032 -0.15475 -0.043312 0.21536 -0.097921 -0.39842 -0.0025269 -0.0049451 0.30817 -0.060233 -0.093169 -0.32096 -0.26979 -0.012128 -0.057238 -0.043301 -0.13321 0.32373 -0.29043 0.14414 0.15831 -0.15641 0.086641 -0.039153 -0.088276 -0.034143 -0.29273 -0.042098 0.12522 0.02023 0.0095427 0.037274 -0.10456 0.34416 0.13484 -0.59694 0.086644 0.085753 0.12874 0.096103 -0.029671 -0.044262 0.092224 -0.1322 0.16806 -0.079644 0.019352 0.008553 -0.27116 -0.25318 0.28219 0.022248 -0.24479 0.12874 0.047537 0.1628 0.18439 0.11346 0.18209 0.19206 0.062905 -0.080867 0.10708 0.1442 -0.10535 0.099044 -0.10691 0.11551 -0.23921 -0.044635 0.052501 -0.00081919 -0.058239 -0.0022707 0.017597 -0.049892 0.21354 -0.11579 -0.1448 0.1224 0.16251 0.086767 0.34824 -0.283 -0.070051 0.16338 0.0073003 -0.16448 -0.13053 -0.081215 0.032699 -0.053493 -0.2762 -0.042988 0.25504 0.093918 0.18539 0.069348 -0.24393 0.022165 0.17886 -0.060816 0.16999 -0.22197 -0.026343 -0.031793 0.24812 -0.093593 0.028742 -0.089318 -0.057312 -0.2918 0.16262 -0.17123 0.23994 0.054192 -0.19102 0.05856 0.22482 -0.19291 -0.013619 0.16117 -0.12952 0.042808 -0.082669 -0.10599 -0.0020878 -0.19795 -0.060472 -0.0097671 -0.14276 0.28274 -0.24583 -0.15245 -0.15998 0.064257 -0.018311 0.1516 -0.04586 -0.034963 0.088828 0.12028 -0.056201 -0.037865 0.17491 0.12827 0.1388 0.27269 0.050095 -0.11119 -0.14113 0.076071 0.27767 -0.092205 0.18895 0.054636 0.19258 -0.10864 0.071113 0.14846 -0.068054 -0.01005 0.10122 -0.14405 -0.58837 0.17374 0.24503 0.07852 -0.37726 0.45353 -0.024723 -0.050261 -0.24074 -0.062762 -0.1741 -0.15165 -0.17354 -0.066827 0.35659 0.10481 -0.16676 0.17627 0.15394 0.00089039 0.05884 -0.063779 -0.10786 -0.28709 0.042156 0.090279 0.11631 -0.042111 0.0078246 0.21058 -0.3473 -0.0079668 0.12509 0.033877 -0.17021 0.15051 0.066593 0.0094863 -0.15109 -0.35815 -0.041934 -0.18639 -0.042891 0.10962 0.013527 0.27583 0.32122 -0.023195 0.00065382 0.13577 0.1072 0.17191 0.29764 -0.068379 0.1574 -0.098929 0.096653 -0.13591 -0.15832 0.3085 -0.20397 0.038903 -0.0047242 -0.019261 -0.00076616 0.079529 0.028636 -0.026701 0.28462 0.078302 0.092243 -0.0085196 0.018857 0.36875 -0.04277 0.11287 -0.067368 0.00068384 -0.2177 0.015007 0.089199 0.0033455 0.36002 0.017948 -0.14318 0.097646 -0.11003 -0.26488 -0.085425 -0.013271 0.032709 0.073806 0.11145 0.026002 -0.039855 0.090787 -0.13838 -0.020791 0.17451 0.03367 0.021383 
